tree
version=v4
num_class=1
num_tree_per_iteration=1
label_index=0
max_feature_idx=109
objective=mape
feature_names=TableScan_Scan_const TableScan_Scan_in_card TableScan_Scan_in_size TableScan_Scan_out_percentage TableScan_Scan_like_percentage TableScan_Scan_compare_percentage TableScan_Scan_in_expression_percentage TableScan_Scan_between_percentage TableScan_Scan_or_exp_percentage TableScan_Scan_starts_with_percentage TableScan_Scan_empty_output InlineTable_Scan_const InlineTable_Scan_in_card InlineTable_Scan_in_size InlineTable_Scan_out_percentage PipelineBreakerScan_Scan_const PipelineBreakerScan_Scan_in_card PipelineBreakerScan_Scan_in_size PipelineBreakerScan_Scan_out_percentage Temp_Build_const Temp_Build_out_card Temp_Build_out_size Temp_Build_in_percentage EarlyExecution_Scan_const EarlyExecution_Scan_out_percentage Select_PassThrough_const Select_PassThrough_in_percentage Select_PassThrough_out_percentage Map_PassThrough_const Map_PassThrough_in_percentage Map_PassThrough_out_percentage MultiWayJoin_Build_const MultiWayJoin_Build_out_card MultiWayJoin_Build_out_size MultiWayJoin_Build_in_percentage MultiWayJoin_Scan_const MultiWayJoin_Scan_in_card MultiWayJoin_Scan_in_size MultiWayJoin_Scan_out_percentage HashJoin_Build_const HashJoin_Build_out_card HashJoin_Build_out_size HashJoin_Build_in_percentage HashJoin_Probe_const HashJoin_Probe_in_card HashJoin_Probe_right_percentage HashJoin_Probe_out_percentage IndexNLJoin_Probe_const IndexNLJoin_Probe_in_percentage IndexNLJoin_Probe_right_card IndexNLJoin_Probe_out_percentage GroupJoin_Build_const GroupJoin_Build_out_card GroupJoin_Build_out_size GroupJoin_Build_in_percentage GroupJoin_Probe_const GroupJoin_Probe_out_card GroupJoin_Probe_out_size GroupJoin_Probe_right_percentage GroupJoin_Probe_out_percentage GroupJoin_Scan_const GroupJoin_Scan_in_card GroupJoin_Scan_in_size GroupJoin_Scan_out_percentage GroupBy_Build_const GroupBy_Build_out_card GroupBy_Build_out_size GroupBy_Build_in_percentage GroupBy_Scan_const GroupBy_Scan_out_card GroupBy_Scan_out_size GroupBy_Scan_out_percentage Sort_Build_const Sort_Build_out_card Sort_Build_out_size Sort_Build_in_percentage Sort_Build_out_percentage Sort_Scan_const Sort_Scan_in_card Sort_Scan_in_size Sort_Scan_out_percentage SetOperation_Build_const SetOperation_Build_out_card SetOperation_Build_out_size SetOperation_Build_in_percentage SetOperation_Scan_const SetOperation_Scan_in_card SetOperation_Scan_in_size SetOperation_Scan_out_percentage SetOperation_PassThrough_const Window_Build_const Window_Build_out_card Window_Build_out_size Window_Build_in_percentage Window_Scan_const Window_Scan_in_card Window_Scan_in_size Window_Scan_out_percentage FileOutput_Build_const FileOutput_Build_out_card FileOutput_Build_out_size FileOutput_Build_in_percentage CsvWriter_Build_const CsvWriter_Build_out_card CsvWriter_Build_out_size CsvWriter_Build_in_percentage AssertSingle_PassThrough_const AssertSingle_PassThrough_in_percentage EarlyProbe_PassThrough_const EarlyProbe_PassThrough_out_percentage
feature_infos=[0:1] [0:287997024] none [0:1] [0:3] [0:4.8230268015105064] [0:2.4975569376021709] [0:4.2485091290318193] [0:2.6660040573474753] none [0:1] [0:1] none none none none none none none none none none none [0:1] [0:1.5] none none none none none none none none none none none none none none [0:1] [0:1609038] [0:60] [0:2.6000000000000001] [0:5] [0:1589749] [0:1.8416548222498941] [0:105.99041135319899] none none none none none none none none none none none none none none none none none [0:1] [0:1] [0:80] [0:105.99041135319899] [0:1] [0:1] [0:80] [0:1] none none none none none none none none none none none none none none none none none none none none none none none none none none none none none none none none none none none none none none
tree_sizes=2700 2870 2873 2870 2862 2861 2866 2862 2885 2862 2863 2854 2870 2861 2875 2862 2851 2877 2853 2876 2872 2887 2901 2890 2903 2888 2867 2883 2883 2901 2892 2895 2880 2909 2903 2921 2920 2902 2909 2922 2904 2906 2935 2929 2921 2929 2914 2920 2915 2917 2954 2949 2933 2933 2938 2925 2939 2940 2924 2945 2924 2956 2930 2938 2928 2944 2946 2940 2941 2957 2957 2947 2967 2954 2987 2940 2917 2932 2960 2933 2949 2955 2968 2955 2905 2970 2942 2958 2960 2972 2960 2956 2938 2944 2951 2954 2943 2949 2950 2968 2954 2973 2969 2983 2961 2919 2948 2948 2941 2947 2974 2957 2960 2972 2978 2943 2954 2959 2957 2968 2972 2971 2990 2981 2957 2979 2973 2968 2948 2970 2974 2964 2944 2960 2954 2951 2951 2965 2988 2966 2977 2951 2965 2952 2951 2958 2961 2977 2965 2957 2941 2972 2957 2958 2943 2963 2952 2968 2975 2943 2958 2973 2959 2951 2968 2980 2954 2943 2961 2949 2953 2908 2959 2973 2954 2947 2965 2974 2964 2950 2974 2984 2984 2956 2981 2945 2957 2944 2970 2960 2949 2958 2968 2970 2973 2961 2967 2945 2965 2952

Tree=0
num_leaves=31
num_cat=0
split_feature=1 11 42 1 1 40 67 70 1 1 39 1 70 1 70 1 1 68 70 70 70 70 70 70 66 66 66 4 42 42
split_gain=5.30333 0.110836 0.0650234 0.12671 0.0217205 0.0618257 0.0164052 0.0175796 0.00989104 0.00879521 0.0124523 0.00823716 0.00799261 0.00238224 0.00216758 0.00211791 0.00175955 0.00173026 0.0030411 0.00170871 0.00351828 0.00165647 0.00240742 0.00153107 0.00120102 0.00206432 0.00128496 0.000757889 0.000721343 0.000613298
threshold=4351.0000000000009 1.0000000180025095e-35 0.10315272507999697 2778.5000000000005 15504.000000000002 693.50000000000011 0.023035200757162099 42.000000000000007 705.00000000000011 1585.0000000000002 1.0000000180025095e-35 1705.0000000000002 14.000000000000002 9044.0000000000018 38.000000000000007 65.500000000000014 342336.00000000006 1.0000000180025095e-35 6.0000000000000009 30.000000000000004 26.000000000000004 50.000000000000007 46.000000000000007 34.000000000000007 30.000000000000004 14.000000000000002 38.000000000000007 0.15338374764000004 0.019240384615384621 0.037733929451524338
decision_type=2 2 2 2 2 2 2 2 2 2 2 2 2 2 2 2 2 2 2 2 2 2 2 2 2 2 2 2 2 2
left_child=1 2 3 6 5 13 7 9 -4 10 12 -10 17 -2 19 -12 29 -1 -19 20 -14 22 -9 -21 25 -3 -26 28 -18 -6
right_child=4 24 8 -5 16 -7 -8 21 11 -11 15 -13 14 -15 -16 -17 27 18 -20 23 -22 -23 -24 -25 26 -27 -28 -29 -30 -31
leaf_value=18.02652645111084 18.260509681701659 17.770137977600097 17.929643154144287 18.21576805114746 18.421782684326171 18.186637115478515 17.88115758895874 17.762096691131593 18.135414695739748 18.169075584411623 17.745492935180664 18.118548011779787 17.768248558044434 18.271323013305665 17.766588783264162 18.124553489685059 18.563275527954101 17.7677152633667 17.769323825836182 17.764407920837403 17.76878480911255 17.763039112091064 17.766392517089844 17.766834068298341 17.767449665069581 17.769053936004639 17.765349864959717 18.438156127929688 18.405832672119139 18.303019332885743
leaf_weight=24 35 56 100 33 464 20 23 42 23 22 34 39 227 30 56 20 455 25 162 77 59 41 27 56 38 92 40 131 52 65
leaf_count=24 35 56 100 33 464 20 23 42 23 22 34 39 227 30 56 20 455 25 162 77 59 41 27 56 38 92 40 131 52 65
internal_value=18.2 18.1955 18.196 18.1963 18.2046 18.2031 18.1961 18.1961 18.1941 18.1963 18.1962 18.1951 18.1964 18.2046 18.1961 18.1948 18.2047 18.1969 18.197 18.196 18.1962 18.1949 18.1946 18.1958 18.1935 18.1934 18.1938 18.2046 18.2046 18.2049
internal_weight=0 1316 1090 928 1252 85 895 872 162 762 740 62 686 65 475 54 1167 211 187 419 286 110 69 133 226 148 78 638 507 529
internal_count=2568 1316 1090 928 1252 85 895 872 162 762 740 62 686 65 475 54 1167 211 187 419 286 110 69 133 226 148 78 638 507 529
is_linear=0
shrinkage=1


Tree=1
num_leaves=31
num_cat=0
split_feature=1 11 42 1 42 3 70 68 1 3 1 70 1 1 43 70 70 5 1 70 70 70 70 70 66 66 66 4 1 42
split_gain=5.22886 0.115031 0.0675953 0.134044 0.0260476 0.0204176 0.0145884 0.0177039 0.0101842 0.0122309 0.0099519 0.00951773 0.00816784 0.00816396 0.00717533 0.0030411 0.00216758 0.00188799 0.00223158 0.00170871 0.00351828 0.00165647 0.00240742 0.00153107 0.00120102 0.00206432 0.00128496 0.00076589 0.000625444 0.000535384
threshold=4351.0000000000009 1.0000000180025095e-35 0.11064055555555556 1705.0000000000002 0.73703703703703705 0.2080416312004513 42.000000000000007 1.0000000180025095e-35 10859.000000000002 0.23738119073687972 705.00000000000011 14.000000000000002 355.00000000000006 1705.0000000000002 1.0000000180025095e-35 6.0000000000000009 38.000000000000007 2.1786743426110697 342336.00000000006 30.000000000000004 26.000000000000004 50.000000000000007 46.000000000000007 34.000000000000007 30.000000000000004 14.000000000000002 38.000000000000007 0.15338374764000004 40485.000000000007 0.019240384615384621
decision_type=2 2 2 2 2 2 2 2 2 2 2 2 2 2 2 2 2 2 2 2 2 2 2 2 2 2 2 2 2 2
left_child=1 2 3 6 8 -5 7 12 9 -2 -4 15 14 -12 -1 -9 19 18 28 20 -13 22 -8 -21 25 -3 -26 29 -10 -20
right_child=4 24 10 5 -6 -7 21 11 17 -11 13 16 -14 -15 -16 -17 -18 -19 27 23 -22 -23 -24 -25 26 -27 -28 -29 -30 -31
leaf_value=-0.40455827713012699 0.054485683441162183 -0.38685247421264646 -0.24329781532287598 -0.00974914550781243 0.045909614562988213 0.01421459197998054 -0.39408963203430186 -0.38903291702270515 0.11755226135253914 0.027265663146972586 -0.058103427886963037 -0.38855295181274419 -0.060380153656005936 -0.077934131622314606 -0.17067850112915048 -0.38758521080017094 -0.39004674911499038 0.19889171600341804 0.32752979278564465 -0.39200952529907235 -0.38807032585144052 -0.39324145317077641 -0.39022338867187512 -0.38982599258422862 -0.3892719554901124 -0.38782811164855957 -0.39116177558898929 0.2147542953491211 0.20949962615966805 0.19769493103027358
leaf_weight=48 33 56 100 23 26 35 42 25 137 24 23 227 23 37 29 162 56 20 447 77 59 41 27 56 38 92 40 127 393 45
leaf_count=48 33 56 100 23 26 35 42 25 137 24 23 227 23 37 29 162 56 20 447 77 59 41 27 56 38 92 40 127 393 45
internal_value=0 -0.00439558 -0.00396986 -0.00364323 0.00463199 0.00101185 -0.00395285 -0.00379745 0.00469842 0.00339319 -0.00586843 -0.00361011 -0.00503763 -0.00485027 -0.00553157 -0.0030058 -0.00384802 0.00476206 0.00477883 -0.00392612 -0.00378841 -0.00502939 -0.00532852 -0.00422225 -0.00644882 -0.00661617 -0.00613127 0.00464987 0.00492944 0.00459336
internal_weight=0 1316 1090 930 1252 58 872 762 1226 57 160 662 100 60 77 187 475 1169 1149 419 286 110 69 133 226 148 78 619 530 492
internal_count=2568 1316 1090 930 1252 58 872 762 1226 57 160 662 100 60 77 187 475 1169 1149 419 286 110 69 133 226 148 78 619 530 492
is_linear=0
shrinkage=0.1


Tree=2
num_leaves=31
num_cat=0
split_feature=1 11 42 1 42 70 67 1 1 45 1 1 70 23 44 4 70 70 42 1 70 70 70 70 70 66 66 66 4 1
split_gain=5.13935 0.115985 0.0683272 0.126012 0.0345286 0.0171087 0.0180173 0.017446 0.01622 0.0107509 0.0099519 0.00816396 0.00677385 0.0115527 0.00662067 0.00529724 0.00469567 0.00216758 0.00188303 0.00179387 0.00170871 0.00351828 0.00165647 0.00240742 0.00153107 0.00120102 0.00206432 0.00128496 0.000691022 0.000656192
threshold=4351.0000000000009 1.0000000180025095e-35 0.11064055555555556 2778.5000000000005 0.6965690000000001 42.000000000000007 0.38820500000000008 1705.0000000000002 9044.0000000000018 0.40951548906119184 705.00000000000011 1705.0000000000002 14.000000000000002 1.0000000180025095e-35 246257.50000000003 0.0051338421545911754 6.0000000000000009 38.000000000000007 0.24020000000000002 342336.00000000006 30.000000000000004 26.000000000000004 50.000000000000007 46.000000000000007 34.000000000000007 30.000000000000004 14.000000000000002 38.000000000000007 0.15338374764000004 65.500000000000014
decision_type=2 2 2 2 2 2 2 2 2 2 2 2 2 2 2 2 2 2 2 2 2 2 2 2 2 2 2 2 2 2
left_child=1 2 3 5 8 6 7 9 15 12 -4 -12 13 16 18 -2 29 20 19 -10 21 -14 23 -7 -22 26 -3 -27 -21 -1
right_child=4 25 10 -5 -6 22 -8 -9 14 -11 11 -13 17 -15 -16 -17 -18 -19 -20 28 24 -23 -24 -25 -26 27 -28 -29 -30 -31
leaf_value=-0.35012962532043446 0.052310029983520683 -0.3481672267913819 -0.21896803379058838 0.01031071853637684 0.041303966522216844 -0.35468066883087168 -0.27322193145751933 -0.014638679504394504 0.16797337722778316 -0.14754366111755388 -0.052293085098266801 -0.070140718460083212 -0.34969765663146968 -0.36857718467712391 0.13418726348876966 0.010400716781616382 -0.34882668972015374 -0.35104207420349137 0.064235774993896308 0.29016923141479511 -0.352808572769165 -0.34926329326629646 -0.35391730785369868 -0.35120104980468769 -0.35084339332580577 -0.35034475994110115 -0.34904530048370364 -0.35204559803009022 0.19654748916625986 -0.054279939651489431
leaf_weight=26 22 56 100 35 29 42 20 20 526 25 23 37 227 37 21 20 162 56 38 471 77 59 41 27 56 38 92 40 125 20
leaf_count=26 22 56 100 35 29 42 20 20 526 25 23 37 227 37 21 20 162 56 38 471 77 59 41 27 56 38 92 40 125 20
internal_value=0 -0.00438709 -0.00395961 -0.00363121 0.00456288 -0.0038614 -0.00369774 -0.00362028 0.00464375 -0.00369852 -0.00586843 -0.00485027 -0.00362773 -0.00320065 0.00471242 0.00271261 -0.00291103 -0.00384802 0.00474428 0.00476773 -0.00392612 -0.00378841 -0.00502939 -0.00532852 -0.00422225 -0.00644882 -0.00661617 -0.00613127 0.00464894 -0.00201938
internal_weight=0 1316 1090 930 1252 895 785 765 1223 745 160 60 720 245 1181 42 208 475 1160 1122 419 286 110 69 133 226 148 78 596 46
internal_count=2568 1316 1090 930 1252 895 785 765 1223 745 160 60 720 245 1181 42 208 475 1160 1122 419 286 110 69 133 226 148 78 596 46
is_linear=0
shrinkage=0.1


Tree=3
num_leaves=31
num_cat=0
split_feature=1 11 1 40 4 68 1 40 70 40 46 43 3 70 4 42 70 70 70 70 70 70 70 1 46 66 66 66 4 42
split_gain=5.03165 0.120868 0.0669923 0.11151 0.0691759 0.0683198 0.0427971 0.0508462 0.0190005 0.0169623 0.0105299 0.00995774 0.012051 0.00951773 0.00794817 0.00475748 0.0030411 0.00216758 0.00170871 0.00351828 0.00165647 0.00240742 0.00153107 0.00120951 0.00146657 0.00120102 0.00206432 0.00128496 0.000742657 0.000558055
threshold=4351.0000000000009 1.0000000180025095e-35 355.00000000000006 579.00000000000011 2.9491939070385285e-05 1.0000000180025095e-35 15504.000000000002 663.50000000000011 42.000000000000007 3.5000000000000004 0.74930136891562305 1.0000000180025095e-35 0.64377083087248177 14.000000000000002 0.12215862898254896 0.6965690000000001 6.0000000000000009 38.000000000000007 30.000000000000004 26.000000000000004 50.000000000000007 46.000000000000007 34.000000000000007 342336.00000000006 0.087672675907209272 30.000000000000004 14.000000000000002 38.000000000000007 0.15338374764000004 0.019240384615384621
decision_type=2 2 2 2 2 2 2 2 2 2 2 2 2 2 2 2 2 2 2 2 2 2 2 2 2 2 2 2 2 2
left_child=1 2 5 4 9 11 7 14 13 -4 15 -1 -13 16 -2 23 -7 18 19 -15 21 -10 -20 24 -8 26 -3 -27 29 -25
right_child=6 25 3 -5 -6 8 10 -9 20 -11 -12 12 -14 17 -16 -17 -18 -19 22 -21 -22 -23 -24 28 -26 27 -28 -29 -30 -31
leaf_value=-0.23304296731948854 0.052328717994690167 -0.31335050411224369 0.032703223037719553 -0.063126646614074744 -0.048914144325256363 -0.31511666278839101 0.15640865974426249 -0.020724608230590746 -0.31921260194778472 0.0020713947296140847 0.084010255432129102 -0.1238035798072815 -0.17612835168838503 -0.31472789096832265 0.021836684036254897 0.047868912887573251 -0.31394402074813854 -0.31593786678314228 -0.31752771549224834 -0.3143369639396667 -0.31852557706832879 -0.31608094482421906 -0.31575905399322513 0.26686538963317902 0.10028149299621561 -0.31531028394699095 -0.31414077043533339 -0.31684103822708104 0.17682350349426273 0.14890851478576686
leaf_weight=132 38 56 29 53 29 25 491 21 42 34 20 20 21 227 26 21 162 56 77 59 41 27 56 444 20 38 92 40 126 45
leaf_count=132 38 56 29 53 29 25 491 21 42 34 20 20 21 227 26 21 162 56 77 59 41 27 56 444 20 38 92 40 126 45
internal_value=0 -0.00434414 -0.00390775 -0.00190637 0.000198467 -0.00421484 0.00451156 0.0023452 -0.00381234 0.00205889 0.00466935 -0.006011 -0.0046497 -0.00361011 0.0037462 0.00470901 -0.0030058 -0.00384802 -0.00392612 -0.00378841 -0.00502939 -0.00532852 -0.00422225 0.00473683 0.00485053 -0.00644882 -0.00661617 -0.00613127 0.00464235 0.00458657
internal_weight=0 1316 1090 145 92 945 1252 85 772 63 1167 173 41 662 64 1147 187 475 419 286 110 69 133 1126 511 226 148 78 615 489
internal_count=2568 1316 1090 145 92 945 1252 85 772 63 1167 173 41 662 64 1147 187 475 419 286 110 69 133 1126 511 226 148 78 615 489
is_linear=0
shrinkage=0.1


Tree=4
num_leaves=31
num_cat=0
split_feature=1 11 1 40 4 68 1 40 70 40 43 4 46 70 3 1 40 70 70 70 70 70 70 70 66 66 66 66 1 4
split_gain=4.96301 0.121923 0.0612981 0.106927 0.0651429 0.060284 0.0458229 0.0478729 0.0190005 0.0132782 0.0122374 0.0111154 0.0101087 0.00951773 0.00850245 0.00768032 0.0269929 0.0030411 0.00216758 0.00170871 0.00351828 0.00165647 0.00240742 0.00153107 0.00120102 0.00206432 0.00128496 0.00117986 0.00117296 0.000798214
threshold=4351.0000000000009 1.0000000180025095e-35 355.00000000000006 579.00000000000011 2.9491939070385285e-05 1.0000000180025095e-35 15504.000000000002 663.50000000000011 42.000000000000007 3.5000000000000004 1.0000000180025095e-35 0.12215862898254896 0.74930136891562305 14.000000000000002 0.64377083087248177 31788.000000000004 15.500000000000002 6.0000000000000009 38.000000000000007 30.000000000000004 26.000000000000004 50.000000000000007 46.000000000000007 34.000000000000007 30.000000000000004 14.000000000000002 38.000000000000007 6.0000000000000009 566558.50000000012 0.15338374764000004
decision_type=2 2 2 2 2 2 2 2 2 2 2 2 2 2 2 2 2 2 2 2 2 2 2 2 2 2 2 2 2 2
left_child=1 2 5 4 9 10 7 11 13 -4 -1 -2 15 17 -12 16 27 -7 19 20 -15 22 -10 -21 25 -3 -26 -8 -17 -30
right_child=6 24 3 -5 -6 8 12 -9 21 -11 14 -13 -14 18 -16 28 -18 -19 -20 23 -22 -23 -24 -25 26 -27 -28 -29 29 -31
leaf_value=-0.20973867058753976 0.047095846195221114 -0.28201545370101933 0.029432900733947776 -0.056813981952667097 -0.044022729892730796 -0.2836049965095519 0.089398679847717599 -0.018652147407531672 -0.28729134175300608 0.0018642552566525694 -0.1114232218265535 0.019653015632629334 0.075609229888916121 -0.28325510187149022 -0.15851551651954665 0.15416481983184804 0.012123632545471353 -0.28254961867332468 -0.28434408010482815 -0.28577494394302366 -0.28290326754570005 -0.28667301936149592 -0.2844728503417972 -0.28418314859390253 -0.28377925555229172 -0.28272669339180007 -0.28515693440437284 0.10666495334625276 0.23656099178314244 0.15673636798858653
leaf_weight=132 38 56 29 53 29 25 42 21 42 34 20 26 20 227 21 527 21 162 56 77 59 41 27 56 38 92 40 26 418 113
leaf_count=132 38 56 29 53 29 25 42 21 42 34 20 26 20 227 21 527 21 162 56 77 59 41 27 56 38 92 40 26 418 113
internal_value=0 -0.00433497 -0.00389668 -0.00198224 7.88835e-05 -0.00419043 0.00446012 0.00221848 -0.00381234 0.00188426 -0.00587765 0.0035779 0.00462339 -0.00361011 -0.00436855 0.00466225 0.00377006 -0.0030058 -0.00384802 -0.00392612 -0.00378841 -0.00502939 -0.00532852 -0.00422225 -0.00644882 -0.00661617 -0.00613127 0.00473786 0.0047373 0.00463241
internal_weight=0 1316 1090 145 92 945 1252 85 772 63 173 64 1167 662 41 1147 89 187 475 419 286 110 69 133 226 148 78 68 1058 531
internal_count=2568 1316 1090 145 92 945 1252 85 772 63 173 64 1167 662 41 1147 89 187 475 419 286 110 69 133 226 148 78 68 1058 531
is_linear=0
shrinkage=0.1


Tree=5
num_leaves=31
num_cat=0
split_feature=1 11 42 1 42 1 40 40 70 23 67 1 1 4 66 70 41 4 70 70 5 70 70 70 70 66 66 66 1 1
split_gain=4.88484 0.122129 0.059439 0.120026 0.0534152 0.111893 0.0202478 0.0219628 0.0151301 0.0141652 0.0129692 0.0116323 0.0105557 0.0247695 0.00684197 0.009533 0.0059874 0.00340071 0.0030978 0.00240742 0.00223245 0.00198166 0.00206033 0.00309652 0.00153107 0.00120102 0.00206432 0.00128496 0.00119384 0.0012057
threshold=4351.0000000000009 1.0000000180025095e-35 0.16353107852170859 48311.000000000007 0.11064055555555556 2778.5000000000005 83.000000000000014 812.50000000000011 42.000000000000007 1.0000000180025095e-35 0.70862093953985716 1705.0000000000002 12100.000000000002 0.12215862898254896 10.000000000000002 14.000000000000002 14.000000000000002 1.2110477202070078 50.000000000000007 46.000000000000007 0.14353987898182893 38.000000000000007 30.000000000000004 26.000000000000004 34.000000000000007 30.000000000000004 14.000000000000002 38.000000000000007 342336.00000000006 19200.000000000004
decision_type=2 2 2 2 2 2 2 2 2 2 2 2 2 2 2 2 2 2 2 2 2 2 2 2 2 2 2 2 2 2
left_child=1 4 10 -4 5 8 -6 -8 9 11 12 14 13 -2 15 20 -5 28 19 -10 -1 22 23 -17 -24 26 -3 -27 29 -14
right_child=2 25 3 16 6 -7 7 -9 18 -11 -12 -13 17 -15 -16 21 -18 -19 -20 -21 -22 -23 24 -25 -26 27 -28 -29 -30 -31
leaf_value=-0.25402400403499609 0.051016702548981031 -0.2538139083309176 -0.018800126201629654 0.044393101566314645 -0.15734152090549466 0.010658390409469476 -0.024282703538894525 -0.052150917192458839 -0.25856220757770532 -0.28744130241870852 0.058261843353271558 -0.0048260349445342857 0.064874149768829173 0.0035927891426084102 -0.12349560758399997 -0.25492959168434126 0.035319798572540154 0.08205680315017716 -0.25800571742534617 -0.25602556530761761 -0.039620456903457682 -0.25590967209434545 -0.25719744954872115 -0.25461294079113017 -0.25576483373451214 -0.25540132999706239 -0.25445402405261996 -0.25664124096393554 0.19806095186996481 0.13467633925247177
leaf_weight=195 33 56 24 32 94 35 22 44 42 48 22 23 38 20 24 227 26 31 41 27 20 56 77 59 56 38 92 40 580 446
leaf_count=195 33 56 24 32 94 35 22 44 42 48 22 23 38 20 24 227 26 31 41 27 20 56 77 59 56 38 92 40 580 446
internal_value=0 -0.00433318 0.00439236 0.00178969 -0.00389453 -0.00360417 -0.00558225 -0.00423973 -0.00382108 -0.00366717 0.00457477 -0.00355876 0.00462086 0.00324257 -0.00363006 -0.00357233 0.00425075 0.00468758 -0.00491945 -0.00532852 -0.00301985 -0.0038224 -0.00389707 -0.00374585 -0.00422225 -0.00644882 -0.00661617 -0.00613127 0.00471766 0.00483361
internal_weight=0 1316 1252 82 1090 930 160 66 895 785 1170 737 1148 53 714 690 58 1095 110 69 215 475 419 286 133 226 148 78 1064 484
internal_count=2568 1316 1252 82 1090 930 160 66 895 785 1170 737 1148 53 714 690 58 1095 110 69 215 475 419 286 133 226 148 78 1064 484
is_linear=0
shrinkage=0.1


Tree=6
num_leaves=31
num_cat=0
split_feature=1 11 1 40 68 42 1 4 70 1 4 43 44 70 5 41 3 40 40 8 70 70 70 70 70 70 70 66 66 66
split_gain=4.77139 0.127143 0.0720128 0.0878861 0.0675035 0.0626846 0.114873 0.0598366 0.0166282 0.0144991 0.0336625 0.0112842 0.0104522 0.00894748 0.00866571 0.0086106 0.00625274 0.00501264 0.00339756 0.00324954 0.0030978 0.0030411 0.00240742 0.00198166 0.00206033 0.00309652 0.00153107 0.00120102 0.00206432 0.00128496
threshold=4351.0000000000009 1.0000000180025095e-35 87.000000000000014 579.00000000000011 1.0000000180025095e-35 0.16353107852170859 48311.000000000007 2.9491939070385285e-05 42.000000000000007 26517.000000000004 0.39935045569456334 1.0000000180025095e-35 196324.50000000003 14.000000000000002 1.0814384164222877 14.000000000000002 0.18901568465962007 15.500000000000002 1096.0000000000002 0.012839598308881553 50.000000000000007 6.0000000000000009 46.000000000000007 38.000000000000007 30.000000000000004 26.000000000000004 34.000000000000007 30.000000000000004 14.000000000000002 38.000000000000007
decision_type=2 2 2 2 2 2 2 2 2 2 2 2 2 2 2 2 2 2 2 2 2 2 2 2 2 2 2 2 2 2
left_child=1 2 4 7 11 9 -7 14 13 10 19 -1 -11 21 17 -8 -12 -4 -5 -2 22 -6 -10 24 25 -15 -26 28 -3 -29
right_child=5 27 3 18 8 6 15 -9 20 12 16 -13 -14 23 -16 -17 -18 -19 -20 -21 -22 -23 -24 -25 26 -27 -28 29 -30 -31
leaf_value=-0.17303065143823632 0.058565603855896244 -0.22843251749782567 0.026991230726051186 -0.02625831616535166 -0.22984209645509709 -0.016920113581466723 0.039953791409683248 -0.035658411213112022 -0.23270598681993493 0.14924444141120893 0.0082863867008207137 -0.15271360102005041 0.077150020028305025 -0.22943663251590715 -0.000449933595848151 0.031787818715286069 -0.00087094762687698344 0.0058163821695323753 -0.046566562777900347 0.058386734791946185 -0.2322051456828117 -0.22889225640249258 -0.23042300877685593 -0.2303187048849111 -0.23147770459384917 -0.22915164671201715 -0.23018835036106078 -0.22986119699735605 -0.22900862164735791 -0.23097711686754183
leaf_weight=129 66 56 22 21 25 24 32 32 42 1021 22 35 21 227 20 26 20 27 32 20 41 162 27 56 77 59 56 38 92 40
leaf_count=129 66 56 22 21 25 24 32 32 42 1021 22 35 21 227 20 26 20 27 32 20 41 162 27 56 77 59 56 38 92 40
internal_value=0 -0.0042902 -0.00384263 -0.00183876 -0.00417233 0.00433343 0.00166064 -0.000108241 -0.00378091 0.00452075 0.00351635 -0.00601485 0.00464413 -0.00359173 0.00154933 0.0040683 0.00119579 0.0022653 -0.00513655 0.00464965 -0.00491945 -0.0030058 -0.00532852 -0.0038224 -0.00389707 -0.00374585 -0.00422225 -0.00644882 -0.00661617 -0.00613127
internal_weight=0 1316 1090 154 936 1252 82 101 772 1170 128 164 1042 662 69 58 42 49 53 86 110 187 69 475 419 286 133 226 148 78
internal_count=2568 1316 1090 154 936 1252 82 101 772 1170 128 164 1042 662 69 58 42 49 53 86 110 187 69 475 419 286 133 226 148 78
is_linear=0
shrinkage=0.1


Tree=7
num_leaves=31
num_cat=0
split_feature=1 11 1 40 68 42 1 4 70 1 4 3 44 3 43 44 6 70 41 7 40 70 70 1 70 70 70 70 70 66
split_gain=4.65316 0.130557 0.0856974 0.0966972 0.0675035 0.065522 0.108776 0.0443488 0.0166282 0.0162389 0.0470081 0.0127429 0.0228485 0.0116159 0.0112842 0.0105351 0.00940212 0.00894748 0.00626832 0.00419691 0.00339756 0.0030978 0.0030411 0.00251396 0.00240742 0.00198166 0.00206033 0.00309652 0.00153107 0.00120102
threshold=5439.0000000000009 1.0000000180025095e-35 87.000000000000014 579.00000000000011 1.0000000180025095e-35 0.22728056572555097 48311.000000000007 0.43485234854125904 42.000000000000007 33963.500000000007 0.90928412658651669 0.10761955104419542 2.5000000000000004 0.18901568465962007 1.0000000180025095e-35 246257.50000000003 0.99996959828962728 14.000000000000002 14.000000000000002 1.0021196053145112 1096.0000000000002 50.000000000000007 6.0000000000000009 392805.00000000006 46.000000000000007 38.000000000000007 30.000000000000004 26.000000000000004 34.000000000000007 30.000000000000004
decision_type=2 2 2 2 2 2 2 2 2 2 2 2 2 2 2 2 2 2 2 2 2 2 2 2 2 2 2 2 2 2
left_child=1 2 4 7 14 9 -7 11 17 10 16 -4 -13 -12 -1 23 19 22 -8 -2 -5 24 -6 -11 -10 26 27 -19 -28 -3
right_child=5 29 3 20 8 6 18 -9 21 15 13 12 -14 -15 -16 -17 -18 25 -20 -21 -22 -23 -24 -25 -26 -27 28 -29 -30 -31
leaf_value=-0.15572758629441275 0.05386065743858346 -0.20610775948262214 -0.0040759974719808412 -0.023632484548816637 -0.2068578868095873 -0.016394222523613066 0.035203089430885369 -0.050176870132999346 -0.20943538813794138 0.11953575654743176 0.012439859873848037 0.024098130297489109 -0.00077759032876940643 -0.0068196612595748723 -0.13744224091804541 0.069435018025474457 0.024870326478462348 -0.20649296926431637 0.024103530671577292 0.052548061312751672 -0.041909906500110242 -0.20898463111453047 -0.20600303076224336 0.16199263039920808 -0.20738070789917026 -0.20728683439641993 -0.20832993413446418 -0.20623648204081546 -0.20716951532495465 -0.20735860363659811
leaf_weight=129 91 148 25 21 25 22 30 20 42 449 21 38 22 20 35 20 20 227 20 20 32 41 162 535 27 56 77 59 56 78
leaf_count=129 91 148 25 21 25 22 30 20 42 449 21 38 22 20 35 20 20 227 20 20 32 41 162 535 27 56 77 59 56 78
internal_value=0 -0.00426071 -0.00380869 -0.0016545 -0.00417233 0.0042561 0.00132775 0.000103107 -0.00378091 0.00443539 0.0035376 0.00110001 0.00189036 0.000582539 -0.00601485 0.0045892 0.00446246 -0.00359173 0.00390601 0.00482207 -0.00513655 -0.00491945 -0.0030058 0.00463538 -0.00532852 -0.0038224 -0.00389707 -0.00374585 -0.00422225 -0.00644882
internal_weight=0 1320 1094 158 936 1248 72 105 772 1176 172 85 60 41 164 1004 131 662 50 111 53 110 187 984 69 475 419 286 133 226
internal_count=2568 1320 1094 158 936 1248 72 105 772 1176 172 85 60 41 164 1004 131 662 50 111 53 110 187 984 69 475 419 286 133 226
is_linear=0
shrinkage=0.1


Tree=8
num_leaves=31
num_cat=0
split_feature=1 11 1 40 1 40 68 4 4 44 70 46 39 40 70 43 8 42 42 1 8 40 70 42 3 70 70 1 70 70
split_gain=4.50889 0.125778 0.0751073 0.116006 0.059613 0.0785707 0.0641284 0.0490802 0.0486471 0.0371385 0.017111 0.0131856 0.0111889 0.0132179 0.0104936 0.0102738 0.0071351 0.0106266 0.00541774 0.00397371 0.00364455 0.00357008 0.0030978 0.00296669 0.00284626 0.00265297 0.00240742 0.00232407 0.00198166 0.00206033
threshold=4097.0000000000009 1.0000000180025095e-35 33963.500000000007 2516.5000000000005 87.000000000000014 579.00000000000011 1.0000000180025095e-35 0.067460773923300646 0.39935045569456334 1.0000000180025095e-35 42.000000000000007 0.74930136891562305 1.0000000180025095e-35 66.500000000000014 14.000000000000002 1.0000000180025095e-35 0.31347639915458941 0.00095383930068961302 0.0050204000999846806 6055175.5000000009 0.012839598308881553 1096.0000000000002 50.000000000000007 0.36623549270086958 0.0019855822625848016 6.0000000000000009 46.000000000000007 645596.50000000012 38.000000000000007 30.000000000000004
decision_type=2 2 2 2 2 2 2 2 2 2 2 2 2 2 2 2 2 2 2 2 2 2 2 2 2 2 2 2 2 2
left_child=1 4 3 8 6 7 15 12 18 -10 14 16 -6 -14 25 -1 23 19 20 24 -2 -7 26 27 -18 -8 -12 -4 29 -16
right_child=2 -3 11 -5 5 21 10 -9 9 -11 22 -13 13 -15 28 -17 17 -19 -20 -21 -22 -23 -24 -25 -26 -27 -28 -29 -30 -31
leaf_value=-0.14015482766497131 0.053910793964851322 -0.18576611042644978 0.11938332835362608 -0.014754800271251867 0.039328601413667744 -0.027652363306459551 -0.18617209812862862 -0.038576889329835856 0.0099465894943691069 -0.011339955848339045 -0.18849184932414717 0.047233349999744691 -0.017393778964102324 0.0095185439301854313 -0.18584367233788479 -0.12369801682624093 0.096701901351672961 0.0093148506858554466 0.016468527518970433 0.084916755886203538 0.054279939521381597 -0.037718915850099323 -0.18808616800307743 0.025188742675525334 0.080821087753039936 -0.18540272768601904 -0.18664263710925316 0.15464705678952415 -0.18655815095677789 -0.18715456345676584
leaf_weight=129 81 226 422 22 20 20 25 25 36 20 42 20 25 23 286 35 21 22 22 22 27 31 41 25 99 162 27 423 56 133
leaf_count=129 81 226 422 22 20 20 25 25 36 20 42 20 25 23 286 35 21 22 22 22 27 31 41 25 99 162 27 423 56 133
internal_value=0 -0.00430352 0.00407816 0.00234156 -0.0038546 -0.00196044 -0.00414601 -0.000230656 0.00315376 0.000689708 -0.0037645 0.00442087 0.00116227 0.00033426 -0.00357259 -0.00594187 0.00447006 0.00386503 0.0042152 0.00418187 0.00450656 -0.00511476 -0.00491945 0.00458411 0.00440837 -0.00293805 -0.00532852 0.00461587 -0.0038224 -0.00389707
internal_weight=0 1306 1262 208 1080 144 936 93 186 56 772 1054 68 48 662 164 1034 164 130 142 108 51 110 870 120 187 69 845 475 419
internal_count=2568 1306 1262 208 1080 144 936 93 186 56 772 1054 68 48 662 164 1034 164 130 142 108 51 110 870 120 187 69 845 475 419
is_linear=0
shrinkage=0.1


Tree=9
num_leaves=31
num_cat=0
split_feature=1 11 1 40 1 40 68 4 4 70 44 3 44 6 4 43 5 40 70 3 8 40 70 42 41 70 70 7 45 1
split_gain=4.34264 0.129468 0.0684184 0.106039 0.0655187 0.073497 0.059954 0.0361765 0.0319691 0.017111 0.0156368 0.0203918 0.0144867 0.0148212 0.037109 0.014179 0.0126528 0.0105285 0.0104936 0.00778857 0.00775633 0.00358487 0.0030978 0.00269553 0.0101023 0.00265297 0.00240742 0.00230451 0.00213097 0.00408523
threshold=4351.0000000000009 1.0000000180025095e-35 33963.500000000007 2516.5000000000005 87.000000000000014 579.00000000000011 1.0000000180025095e-35 0.43485234854125904 0.0051338421545911754 42.000000000000007 2.5000000000000004 0.10761955104419542 196324.50000000003 0.41662356014435792 0.64271585556791633 1.0000000180025095e-35 8.3873515302410539e-05 1361.0000000000002 14.000000000000002 0.61939274301912073 0.055395181622346211 1467.5000000000002 50.000000000000007 0.18078600000000003 14.000000000000002 6.0000000000000009 46.000000000000007 1.4544810930704695e-06 0.65082886472952317 504496.50000000006
decision_type=2 2 2 2 2 2 2 2 2 2 2 2 2 2 2 2 2 2 2 2 2 2 2 2 2 2 2 2 2 2
left_child=1 4 3 8 6 7 15 10 19 18 11 -6 13 23 17 -1 -10 28 25 27 -18 -7 26 -4 -25 -8 -11 -2 -15 -30
right_child=2 -3 12 -5 5 21 9 -9 16 22 -12 -13 -14 14 -16 -17 20 -19 -20 -21 -22 -23 -24 24 -26 -27 -28 -29 29 -31
leaf_value=-0.12613934489847409 0.05623507789393898 -0.16718949938380484 0.12256931650215037 -0.012113199943833664 -0.0053152504766796234 -0.018503999763289158 -0.16755488831576582 -0.04130149418671572 0.013764586207517839 -0.16964266439173237 -0.0029489604476260925 0.02140846242117327 0.047026810543974666 0.094266742344435536 -0.0041090129656232936 -0.11132821514361667 -0.0028617506106954241 0.022712787385458812 -0.16785651565585874 0.041090549466791873 0.0018828801668234975 -0.034316286960401857 -0.16927755120276977 0.033723675698088589 0.022005254678457931 -0.16686245491741705 -0.16797837339832783 0.056099911237120284 0.062261050816115215 0.067246125219458372
leaf_weight=129 28 226 796 21 23 28 25 20 26 42 22 36 23 97 24 35 25 20 475 26 22 25 41 24 21 162 27 50 20 29
leaf_count=129 28 226 796 21 23 28 25 20 26 42 22 36 23 97 24 35 25 20 475 26 22 25 41 24 21 162 27 50 20 29
internal_value=0 -0.00427054 0.00395651 0.00225093 -0.0038189 -0.00190752 -0.00413338 -0.000324993 0.00304805 -0.0037645 0.000615434 0.00146387 0.00427691 0.00433228 0.0035346 -0.00586981 0.00144394 0.00406599 -0.00357259 0.00417401 0.000464742 -0.00492329 -0.00491945 0.0045125 0.00375953 -0.00293805 -0.00532852 0.00467364 0.00436074 0.00382322
internal_weight=0 1316 1252 198 1090 154 936 101 177 772 81 59 1054 1031 190 164 73 166 662 104 47 53 110 841 45 187 69 78 146 49
internal_count=2568 1316 1252 198 1090 154 936 101 177 772 81 59 1054 1031 190 164 73 166 662 104 47 53 110 841 45 187 69 78 146 49
is_linear=0
shrinkage=0.1


Tree=10
num_leaves=31
num_cat=0
split_feature=1 11 42 1 1 68 40 8 4 6 3 70 1 67 6 1 1 43 70 40 5 1 44 6 7 1 40 44 70 1
split_gain=4.12627 0.13042 0.0853905 0.110667 0.0533213 0.0610089 0.0566428 0.0395386 0.0322071 0.0407619 0.0205122 0.0190527 0.0187945 0.0184012 0.0176547 0.0148721 0.0130716 0.0121586 0.0107493 0.0103489 0.00623455 0.0055108 0.00480399 0.00555464 0.00411078 0.00370439 0.00369649 0.00336085 0.0030978 0.00261924
threshold=4097.0000000000009 1.0000000180025095e-35 0.066424194291986247 63445.000000000007 65.500000000000014 1.0000000180025095e-35 579.00000000000011 0.32730117523947522 0.63449597018453263 0.40555215808857381 0.51182044708538654 14.000000000000002 82033.500000000015 0.38820500000000008 0.28904483813668475 15504.000000000002 182035.00000000003 1.0000000180025095e-35 42.000000000000007 32.500000000000007 8.3873515302410539e-05 504496.50000000006 1474.5000000000002 0.12065757263145049 0.14573755389098972 148447.00000000003 1467.5000000000002 253.50000000000003 50.000000000000007 217555.00000000003
decision_type=2 2 2 2 2 2 2 2 2 2 2 2 2 2 2 2 2 2 2 2 2 2 2 2 2 2 2 2 2 2
left_child=1 4 8 10 5 17 7 14 13 12 -4 -7 20 15 19 24 -5 -1 -13 -6 -10 -18 29 25 -2 -24 -8 -14 -20 -17
right_child=2 -3 3 16 6 11 26 -9 9 -11 -12 18 27 -15 -16 22 21 -19 28 -21 -22 -23 23 -25 -26 -27 -28 -29 -30 -31
leaf_value=-0.11837455820525769 0.031413129918616535 -0.15047054944542443 -0.00051084910896399556 0.0060993693243169391 0.01817887343676361 -0.15044609925721827 -0.016653599786960172 -0.03861843264587677 0.014472107668965962 -0.0073886090027396991 -0.011198792767743626 -0.15107086409027293 0.059153670557501675 0.030253083349555256 -0.031234951729427609 0.084840068109992117 0.046497957069319897 -0.11088844159077667 -0.15191030865812555 -0.0018124932230477954 0.0020712876764708457 0.027857534172117938 0.029282111414435263 0.033608442018801553 0.0070149449738746488 0.084790931799414437 -0.033677779602252399 0.027855061488783764 -0.1523497960824928 0.15043045288744247
leaf_weight=115 24 226 23 22 39 187 27 26 20 27 21 475 106 30 20 314 33 31 69 26 29 28 20 20 20 83 24 20 41 422
leaf_count=115 24 226 23 22 39 187 27 26 20 27 21 475 106 30 20 314 33 31 69 26 29 28 20 20 20 83 24 20 41 422
internal_value=0 -0.00426429 0.00375388 0.00129481 -0.00380716 -0.00410233 -0.00213452 -0.000867048 0.00402903 0.0028842 -0.00275953 -0.00374781 0.00344217 0.0042769 0.000176775 0.00435784 0.00344409 -0.00597693 -0.00402868 0.000976202 0.00178035 0.00419774 0.00444969 0.00387121 0.00256471 0.00416733 -0.00489313 0.00408844 -0.00491945 0.00454637
internal_weight=0 1306 1262 127 1080 918 162 111 1135 202 44 772 175 933 85 903 83 146 585 65 49 61 859 123 44 103 51 126 110 736
internal_count=2568 1306 1262 127 1080 918 162 111 1135 202 44 772 175 933 85 903 83 146 585 65 49 61 859 123 44 103 51 126 110 736
is_linear=0
shrinkage=0.1


Tree=11
num_leaves=31
num_cat=0
split_feature=1 11 1 40 1 68 40 8 44 70 3 43 4 4 8 6 44 41 1 1 6 7 1 70 40 3 4 44 3 7
split_gain=3.89914 0.139571 0.0835826 0.0757425 0.0741028 0.057495 0.0553965 0.0380735 0.035128 0.0183289 0.0172274 0.0167311 0.0162257 0.0147829 0.013222 0.0116124 0.0109239 0.0129491 0.0145858 0.0170782 0.0110593 0.0103529 0.00984686 0.00855662 0.00773215 0.00647756 0.00787912 0.00558712 0.00553858 0.00404953
threshold=4351.0000000000009 1.0000000180025095e-35 33963.500000000007 2516.5000000000005 65.500000000000014 1.0000000180025095e-35 426.50000000000006 0.32730117523947522 6.5000000000000009 14.000000000000002 0.26343573495686368 1.0000000180025095e-35 0.0051338421545911754 0.067460773923300646 0.31347639915458941 0.68392960152571824 172383.00000000003 14.000000000000002 159535.00000000003 997404.50000000012 0.41662356014435792 0.25705093029884679 504496.50000000006 42.000000000000007 15.500000000000002 0.82938783333333344 0.50048805243011263 6.5000000000000009 0.51900000000000013 0.52911051840907442
decision_type=2 2 2 2 2 2 2 2 2 2 2 2 2 2 2 2 2 2 2 2 2 2 2 2 2 2 2 2 2 2
left_child=1 4 3 8 5 11 7 13 12 -7 14 -1 15 24 -4 -2 17 20 -19 -20 25 -14 -22 -11 -6 26 -12 -24 -8 -16
right_child=2 -3 10 -5 6 9 28 -9 -10 23 16 -13 21 -15 29 -17 -18 18 19 -21 22 -23 27 -25 -26 -27 -28 -29 -30 -31
leaf_value=-0.10653710238473196 0.054817128969209254 -0.13542349450088195 0.11379622777238155 -0.0097820006726760059 0.018083817377593549 -0.13540148933149646 -0.010584356827917675 -0.034756589381289164 -0.001034147165124466 -0.13596377768124554 0.10047911961808467 -0.09979959743169893 0.013024896902069472 -0.0063252574057319324 0.0570480127504851 0.013399498742744244 0.033845036309635645 0.0042394173933526956 0.04952778184171365 0.017136931443989312 0.0419523779543578 0.00018424277990725102 0.033336700801251243 -0.13671927779231297 7.9954861006825706e-05 0.075936060677578257 0.016169221241619881 0.030605429705921242 -0.037141140504065008 0.045692430792057696
leaf_weight=115 62 226 539 21 35 187 20 26 39 475 137 31 30 20 20 20 23 22 40 30 43 26 22 110 31 108 20 22 40 28
leaf_count=115 62 226 539 21 35 187 20 26 39 475 137 31 30 20 20 20 23 22 40 30 43 26 22 110 31 108 20 22 40 28
internal_value=0 -0.00418715 0.00360849 0.00172335 -0.00371822 -0.00407512 -0.00181337 -0.000499825 0.00239704 -0.00373096 0.00396262 -0.00589493 0.00314595 0.000513946 0.00432322 0.00404204 0.00350936 0.00361944 0.00256309 0.00326898 0.00389553 0.00183383 0.00291726 -0.00400644 0.00123567 0.00421669 0.00380664 0.00186555 -0.00426531 0.00273284
internal_weight=0 1316 1252 198 1090 918 172 112 177 772 1054 146 138 86 587 82 467 444 92 70 352 56 87 585 66 265 157 44 60 48
internal_count=2568 1316 1252 198 1090 918 172 112 177 772 1054 146 138 86 587 82 467 444 92 70 352 56 87 585 66 265 157 44 60 48
is_linear=0
shrinkage=0.1


Tree=12
num_leaves=31
num_cat=0
split_feature=1 11 42 1 1 40 42 3 8 4 6 1 1 4 44 1 46 70 23 5 70 6 1 7 3 46 3 7 44 40
split_gain=3.62925 0.140524 0.122964 0.103731 0.0605387 0.0474455 0.0425679 0.0365796 0.0356452 0.0347408 0.0514312 0.0333058 0.0317226 0.0255898 0.0212022 0.0164317 0.0163861 0.0119902 0.0139683 0.00988098 0.00986948 0.00949234 0.0110679 0.00904063 0.008099 0.0129819 0.00523498 0.00522675 0.00517202 0.00503232
threshold=4097.0000000000009 1.0000000180025095e-35 0.059250080645161296 182035.00000000003 65.500000000000014 426.50000000000006 0.21791134208735247 0.51182044708538654 0.32730117523947522 0.2086929174946745 0.036594152383583524 152500.00000000003 15504.000000000002 2.9491939070385285e-05 1474.5000000000002 61445.000000000007 0.41486657748363026 42.000000000000007 1.0000000180025095e-35 8.3873515302410539e-05 14.000000000000002 0.5444983129168367 13198608.500000002 0.025000000000000005 0.26343573495686368 0.0019225431771309968 0.51900000000000013 1.0000008549053818 629.50000000000011 15.500000000000002
decision_type=2 2 2 2 2 2 2 2 2 2 2 2 2 2 2 2 2 2 2 2 2 2 2 2 2 2 2 2 2 2
left_child=1 4 9 7 6 8 17 -4 13 12 15 -12 23 29 21 19 24 18 20 -11 -1 22 -14 -2 -16 -26 -7 -23 -17 -6
right_child=2 -3 3 -5 5 26 -8 -9 -10 10 11 -13 14 -15 16 28 -18 -19 -20 -21 -22 27 -24 -25 25 -27 -28 -29 -30 -31
leaf_value=-0.12050445258096404 0.021302897164817126 -0.12188114505079373 -0.00047815895138967338 0.029259481196843851 0.017854557196554311 -0.0095259211451260498 -0.082911664399039256 -0.0099754987744567827 -0.031280930443160319 0.011722407211862419 -0.011078006638616245 0.037757140158922203 0.11441573524416669 -0.0056927316651588459 0.08814624439142911 0.050892325524279518 0.0026272617246274168 -0.12304735001308167 -0.17670076508822918 0.00074010677878462168 -0.12236739991312096 0.042144797328643339 0.09652936272249911 -0.00010008004443520236 0.0062766093728136244 0.050536027666541375 -0.03837087410990847 0.050988935196444984 0.017576380142241988 0.0043219080638078116
leaf_weight=216 22 226 39 63 30 20 69 31 26 23 21 28 554 23 36 125 20 110 48 30 475 88 20 22 26 57 38 37 20 25
leaf_count=216 22 226 39 63 30 20 69 31 26 23 21 28 554 23 36 125 20 110 48 30 475 88 20 22 26 57 38 37 20 25
internal_value=0 -0.00418125 0.00333853 0.000462583 -0.00370674 -0.00192449 -0.00402125 -0.00218683 -0.000646468 0.00367732 0.00262909 -0.000271587 0.00397088 0.000422399 0.0041083 0.00334693 0.00298032 -0.00382712 -0.00368213 0.00184014 -0.00356755 0.0043326 0.00450457 0.00135363 0.00342544 0.00288212 -0.00421611 0.00354293 0.00389769 0.0015937
internal_weight=0 1306 1262 133 1080 162 918 70 104 1129 247 49 882 78 838 198 139 849 739 53 691 699 574 44 119 83 58 125 145 55
internal_count=2568 1306 1262 133 1080 162 918 70 104 1129 247 49 882 78 838 198 139 849 739 53 691 699 574 44 119 83 58 125 145 55
is_linear=0
shrinkage=0.1


Tree=13
num_leaves=31
num_cat=0
split_feature=1 42 11 1 1 3 1 44 6 68 3 44 46 4 1 4 70 43 6 7 4 40 1 7 70 40 1 41 40 41
split_gain=3.43842 0.157221 0.136752 0.105517 0.0416892 0.0453499 0.0403842 0.0394494 0.0396284 0.0351069 0.0276786 0.0262477 0.024169 0.0221824 0.0207191 0.0203602 0.0183289 0.0173794 0.0157984 0.0130538 0.0112279 0.0149175 0.00970011 0.00865164 0.00855662 0.0074396 0.00703129 0.00602251 0.00511814 0.0043645
threshold=3198.5000000000005 0.042810233883361103 1.0000000180025095e-35 182035.00000000003 47.500000000000007 0.21776209677419359 61445.000000000007 483.50000000000006 0.009936423539834616 1.0000000180025095e-35 0.27353802451676101 81015.500000000015 0.25333964693654548 1.2706076640974284 15504.000000000002 0.99875000000000014 14.000000000000002 1.0000000180025095e-35 0.9887625000000001 0.99826138752043436 0.57779931564194975 13.500000000000002 13198608.500000002 0.32582483523062861 42.000000000000007 3610.5000000000005 8069.0000000000009 14.000000000000002 15.500000000000002 6.0000000000000009
decision_type=2 2 2 2 2 2 2 2 2 2 2 2 2 2 2 2 2 2 2 2 2 2 2 2 2 2 2 2 2 2
left_child=2 6 4 10 9 -6 7 8 15 17 -3 13 -13 18 -10 26 -11 28 22 -20 21 -7 -8 -23 -18 -12 -2 -5 -1 -16
right_child=1 3 -4 27 5 20 11 -9 14 16 25 12 -14 -15 29 -17 24 -19 19 -21 -22 23 -24 -25 -26 -27 -28 -29 -30 -31
leaf_value=-0.096532875354613884 0.020659814313352599 0.00037978389656139204 -0.10969303054571428 0.037579803481644802 0.0020045126760464883 -0.006245390296088971 0.095576023283218708 -0.0010047431264904817 -0.003270152839450802 -0.10981089514025051 -0.020163107414770565 0.036141219496784414 -0.0090093811303862733 0.01073857110369545 0.024878449347177423 0.0057728503055699326 -0.11013065992180877 -0.07931627966178284 0.058058650287347295 0.0071141345460315371 -0.063845760019496822 -0.0074370383468668425 0.066088128564430457 -0.018559120886692072 -0.11074261501177354 -0.0064946474037736127 0.043316683387230631 0.012379334529317276 -0.052185350096003273 0.0078450691356056982
leaf_weight=82 29 36 226 30 38 24 701 39 20 187 22 20 20 22 29 36 475 24 47 28 25 31 31 21 110 39 95 35 20 26
leaf_count=82 29 36 226 30 38 24 701 39 20 187 22 20 20 22 29 36 475 24 47 28 25 31 31 21 110 39 95 35 20 26
internal_value=0 0.00309944 -0.00421987 0.000183923 -0.0037341 -0.00212252 0.00351266 0.0024541 0.00294291 -0.00398356 -0.00190525 0.00384644 0.00134446 0.00396716 0.00104621 0.00383199 -0.00373096 -0.00553124 0.00405257 0.00267029 -0.00323045 -0.00262573 0.00419419 -0.00357753 -0.00400644 -0.00320295 0.00443981 0.00330162 -0.00610093 0.00204849
internal_weight=0 1305 1263 162 1037 139 1143 274 235 898 97 869 40 829 75 160 772 126 807 75 101 76 732 52 585 61 124 65 102 55
internal_count=2568 1305 1263 162 1037 139 1143 274 235 898 97 869 40 829 75 160 772 126 807 75 101 76 732 52 585 61 124 65 102 55
is_linear=0
shrinkage=0.1


Tree=14
num_leaves=31
num_cat=0
split_feature=1 42 11 1 1 1 68 4 8 44 40 45 1 3 1 70 43 6 4 66 3 3 7 44 3 46 70 1 6 6
split_gain=3.21992 0.145683 0.145137 0.0895793 0.0704376 0.0441458 0.0440135 0.0386522 0.0347078 0.0334389 0.0264295 0.0238796 0.0246598 0.023672 0.0212847 0.0183289 0.0177152 0.0153587 0.0152235 0.01281 0.0139956 0.0111842 0.0103276 0.0100939 0.0198484 0.0185229 0.00855662 0.00794245 0.00739634 0.00731217
threshold=3198.5000000000005 0.042810233883361103 1.0000000180025095e-35 268757.00000000006 36.000000000000007 61445.000000000007 1.0000000180025095e-35 0.2086929174946745 0.32730117523947522 936.00000000000011 579.00000000000011 0.33754693750000003 504496.50000000006 0.27353802451676101 15504.000000000002 14.000000000000002 1.0000000180025095e-35 0.28904483813668475 1.1704730363947153 10.000000000000002 0.0026975601531828808 0.48927033011272147 0.99951138752043434 6033.0000000000009 0.81300950615453049 1.7415131414257496e-05 42.000000000000007 1960400.0000000002 0.37714820654010844 0.072130254313096873
decision_type=2 2 2 2 2 2 2 2 2 2 2 2 2 2 2 2 2 2 2 2 2 2 2 2 2 2 2 2 2 2
left_child=2 5 4 13 6 7 16 9 10 14 17 18 -13 -3 22 -8 -1 21 -7 20 -9 -6 -2 25 -25 27 -17 -14 -10 -16
right_child=1 3 -4 -5 8 11 15 19 28 -11 -12 12 23 -15 29 26 -18 -19 -20 -21 -22 -23 -24 24 -26 -27 -28 -29 -30 -31
leaf_value=-0.086879587819152532 0.018593832882017481 0.00034180550690514626 -0.098723727491142915 0.025689504702704726 0.0026362139776619389 0.095347348429819345 -0.098829805626225398 0.0025802246753102056 -0.016841777364478363 -0.0012864845537958304 -0.018029557863276934 0.057776846623067972 0.06205538477348576 -0.0088810853390949521 0.046179404582504094 -0.099117593929627823 -0.089647756134385762 -0.011083561234554652 0.016929068956193661 0.022823805515605502 -0.0077641538718705057 -0.0055938488675177922 0.0016217735535175139 0.030606796056360609 -0.012585066975911731 0.059479315707987368 -0.099668353510596219 0.018295324345038468 -0.059293922298999394 0.022390604412459682
leaf_weight=89 36 36 226 63 37 509 187 20 20 26 20 121 59 63 82 475 21 29 20 23 23 27 23 37 22 60 110 41 22 41
leaf_count=89 36 36 226 63 37 509 187 20 20 26 20 121 59 63 82 475 21 29 20 23 23 27 23 37 22 60 110 41 22 41
internal_value=0 0.00293038 -0.00415255 0.000123879 -0.00365211 0.00332815 -0.00399761 0.00222138 -0.00168612 0.00289042 -0.000773831 0.00367712 0.00302325 -0.00175197 0.00336965 -0.00373096 -0.00586903 -6.4614e-05 0.00409737 0.000112891 -0.00090601 0.000800442 0.00180822 0.00239021 0.00127222 0.00280248 -0.00400644 0.00196905 -0.00414062 0.00411864
internal_weight=0 1305 1263 162 1037 1143 882 274 155 208 113 869 340 99 182 772 110 93 529 66 43 64 59 219 59 160 585 100 42 123
internal_count=2568 1305 1263 162 1037 1143 882 274 155 208 113 869 340 99 182 772 110 93 529 66 43 64 59 219 59 160 585 100 42 123
is_linear=0
shrinkage=0.1


Tree=15
num_leaves=31
num_cat=0
split_feature=1 11 42 1 1 4 6 68 6 4 44 5 3 3 3 44 43 70 1 1 45 1 1 66 3 7 1 70 45 1
split_gain=3.00381 0.148926 0.143391 0.0792597 0.0712497 0.0511992 0.0466209 0.044735 0.0382474 0.0382127 0.0353654 0.029541 0.023059 0.022142 0.0217544 0.0204078 0.0177152 0.017594 0.0166233 0.0149004 0.0173815 0.0123993 0.0119686 0.0113562 0.0167306 0.00970267 0.00943317 0.00905975 0.00816849 0.0163872
threshold=3198.5000000000005 1.0000000180025095e-35 0.050084581862618861 36.000000000000007 268757.00000000006 0.2086929174946745 0.5444983129168367 1.0000000180025095e-35 0.036594152383583524 0.57779931564194975 936.00000000000011 1.5218646917579071 0.27353802451676101 0.57183025238095253 0.57932481060606078 261.50000000000006 1.0000000180025095e-35 14.000000000000002 152500.00000000003 23680.000000000004 0.077878128639549973 12100.000000000002 9822245.0000000019 22.000000000000004 0.0014137829790666536 0.27311005072331956 152500.00000000003 42.000000000000007 0.86850315734989658 997404.50000000012
decision_type=2 2 2 2 2 2 2 2 2 2 2 2 2 2 2 2 2 2 2 2 2 2 2 2 2 2 2 2 2 2
left_child=1 3 5 7 12 6 10 16 15 11 21 14 -4 -12 25 23 -1 -9 -10 -8 -21 -2 -23 24 26 -5 -7 -19 29 -15
right_child=2 -3 4 9 -6 8 19 17 18 -11 13 -13 -14 28 -16 -17 -18 27 -20 20 -22 22 -24 -25 -26 -27 -28 -29 -30 -31
leaf_value=-0.078191629037237226 0.016734449593815627 -0.088851354742028654 0.00030762495621452504 0.0095482829119664103 0.020006602258724727 0.004937542807482132 -0.0033924838561052439 -0.088946825063602838 -0.01223257339215067 -0.045934719647578962 0.047409246349710804 -0.0097506650084206118 -0.0079929768051854918 -0.0010157522126633012 -0.014713299806701486 0.0053250300065840863 -0.08068298052094712 -0.08920583453666496 0.018646139152401275 0.038975293921346937 0.017586093748531439 0.085821788842880053 0.0975083319927606 0.02841779859900484 0.0070124252330781905 -0.0015536350259536037 0.050310599654750737 -0.0897015181595366 -0.0026501471951984714 0.041679569819865141
leaf_weight=89 42 226 34 32 62 22 20 187 21 33 69 25 63 22 37 29 21 475 28 66 70 543 22 37 66 28 46 110 22 21
leaf_count=89 42 226 34 32 62 22 20 187 21 33 69 25 63 22 37 29 21 475 28 66 70 543 22 37 66 28 46 110 22 21
internal_value=0 -0.00412277 0.00271835 -0.00361584 -9.58133e-05 0.00310879 0.00346095 -0.00398233 0.00184016 -0.00153036 0.00379174 -0.000713752 -0.00178821 0.00232139 7.62296e-05 0.00245362 -0.00586903 -0.0037135 -0.000663748 0.00188972 0.00226451 0.00411633 0.00423956 0.00286961 0.00244139 0.00125224 0.00354222 -0.00398341 0.000996973 0.00179882
internal_weight=0 1263 1305 1037 159 1146 897 882 249 155 741 122 97 134 97 200 110 772 49 156 136 607 565 171 134 60 68 585 65 43
internal_count=2568 1263 1305 1037 159 1146 897 882 249 155 741 122 97 134 97 200 110 772 49 156 136 607 565 171 134 60 68 585 65 43
is_linear=0
shrinkage=0.1


Tree=16
num_leaves=31
num_cat=0
split_feature=1 11 1 1 40 3 68 3 44 41 4 1 5 1 70 45 43 6 41 3 44 3 7 1 1 4 6 6 44 3
split_gain=2.82972 0.153615 0.130487 0.0959063 0.072756 0.0420516 0.0400595 0.0355612 0.0296013 0.0398103 0.0275699 0.0271343 0.0197486 0.0231077 0.017594 0.0171936 0.0161803 0.0161556 0.0160998 0.0160259 0.0152234 0.0216916 0.0143481 0.0138753 0.0271394 0.0136154 0.01299 0.0120726 0.0118196 0.00991058
threshold=2778.5000000000005 1.0000000180025095e-35 49156.000000000007 36.000000000000007 1467.5000000000002 0.076635306122448996 1.0000000180025095e-35 0.21776209677419359 81015.500000000015 14.000000000000002 0.10725167877661193 15504.000000000002 1.5218646917579071 1259.0000000000002 14.000000000000002 0.77176516161497022 1.0000000180025095e-35 0.99630637254901977 6.0000000000000009 0.55029394634341677 2.5000000000000004 0.10761955104419542 0.4545896507727018 997404.50000000012 101000.00000000001 0.63449597018453263 0.41418474024406232 0.00209457 1.0000000180025095e-35 0.0099751243781094536
decision_type=2 2 2 2 2 2 2 2 2 2 2 2 2 2 2 2 2 2 2 2 2 2 2 2 2 2 2 2 2 2
left_child=1 3 4 6 10 17 16 -5 9 26 11 20 13 18 -8 -10 -1 25 -9 -13 21 -2 -6 24 -11 -4 -7 -27 29 -12
right_child=2 -3 5 7 22 8 14 12 15 23 28 19 -14 -15 -16 -17 -18 -19 -20 -21 -22 -23 -24 -25 -26 27 -28 -29 -30 -31
leaf_value=-0.070372466133513542 -0.0010939754634787136 -0.079966219267825878 0.092585544871006675 0.001417764288699175 -0.0047870029115856033 0.050821571502068258 -0.080052142557242523 0.00097815487026124974 0.020365356620539288 -0.0038864945990965795 -0.0016590865578461234 0.027827048927171916 -0.02179810317805533 -0.028371011332241382 -0.080436198032456663 -0.0058373443645130868 -0.072614682468852373 0.033840457027480397 -0.0039338054283875939 0.0081658801353917451 -0.0058987607333875758 0.030291315174678247 -0.01407134096554934 -0.0048708836466644818 0.024505116202066548 0.028387694793763532 0.022584311696912353 0.0064958940593928816 -0.0064759658030890677 0.0015084253405042603
leaf_weight=89 28 226 345 38 29 302 187 24 23 31 20 71 28 36 585 20 21 37 24 26 20 29 20 36 68 48 84 22 23 28
leaf_count=89 28 226 345 38 29 302 187 24 23 31 20 71 28 36 585 20 21 37 24 26 20 29 20 36 68 48 84 22 23 28
internal_value=0 -0.00408746 0.00255293 -0.00357034 0.000697596 0.0030898 -0.0039679 -0.00123273 0.00251387 0.002722 0.00140111 0.00207874 -0.00212959 -0.00136294 -0.0037135 -7.87429e-06 -0.00575328 0.00380845 7.34398e-05 0.00319135 0.000677136 0.00151003 -0.00282 0.00124389 0.00185524 0.00398696 0.00323895 0.00271536 -0.000259543 0.000633588
internal_weight=0 1258 1310 1032 294 1016 882 150 564 521 245 174 112 84 772 43 110 452 48 97 77 57 49 135 99 415 386 70 71 48
internal_count=2568 1258 1310 1032 294 1016 882 150 564 521 245 174 112 84 772 43 110 452 48 97 77 57 49 135 99 415 386 70 71 48
is_linear=0
shrinkage=0.1


Tree=17
num_leaves=31
num_cat=0
split_feature=1 11 42 1 4 6 1 46 6 4 68 1 40 4 1 42 41 41 3 1 5 70 4 44 8 3 39 3 43 1
split_gain=2.56199 0.160302 0.122428 0.101388 0.0725794 0.05544 0.051885 0.0466493 0.0326648 0.0307349 0.0274643 0.0247873 0.0236543 0.0235342 0.0217864 0.0214501 0.0201338 0.0194286 0.018848 0.0217337 0.0176063 0.017594 0.0154905 0.0185997 0.0149464 0.0143356 0.013415 0.012364 0.0119526 0.0114703
threshold=3198.5000000000005 1.0000000180025095e-35 0.066424194291986247 36.000000000000007 0.10725167877661193 0.52776035685792555 182035.00000000003 0.17170950000000004 0.036594152383583524 0.57779931564194975 1.0000000180025095e-35 997404.50000000012 579.00000000000011 0.56229209985477069 78364.500000000015 0.00034003333333333338 1.0000000180025095e-35 14.000000000000002 0.0026975601531828808 152500.00000000003 0.72731182795698934 14.000000000000002 0.59785153586312545 253.50000000000003 0.000554708871857963 0.076635306122448996 1.0000000180025095e-35 1.5128299776939826e-07 1.0000000180025095e-35 146150.00000000003
decision_type=2 2 2 2 2 2 2 2 2 2 2 2 2 2 2 2 2 2 2 2 2 2 2 2 2 2 2 2 2 2
left_child=1 3 4 10 5 7 13 14 18 12 28 -9 17 -4 16 25 -2 20 19 -6 -5 -12 -20 26 -18 27 -24 -7 -1 -10
right_child=2 -3 6 9 8 15 -8 11 29 -11 21 -13 -14 -15 -16 -17 24 -19 22 -21 -22 -23 23 -25 -26 -27 -28 -29 -30 -31
leaf_value=-0.063335219520162231 0.043116249124144093 -0.071969597341043287 -0.0067158552133772531 0.0097878870918492577 0.0019943565828157263 0.013471309686361722 0.014096849136513613 -0.0052536099280619201 -0.0092637679697489261 -0.038504146549596996 -0.072046928301518251 0.042121656140266951 -0.011918170963055275 0.0012426846710880568 0.086374975095993997 -0.0063493179860959264 0.018809828305421661 -0.0059040712351144725 0.025425176205054002 0.042440770209899274 0.00039300700992654929 -0.072392578229210969 0.017548802570093971 -0.0020784759015612052 -0.0014791877824322343 0.0097537164120339529 -0.00073596653355458843 0.051036464338686832 -0.06535321422196709 0.0145230940674697
leaf_weight=89 63 226 69 21 30 24 61 21 21 33 187 23 23 20 497 20 101 30 24 60 48 585 40 25 20 75 37 40 21 34
leaf_count=89 63 226 69 21 30 24 61 21 21 33 187 23 23 20 497 20 101 30 24 60 48 585 40 25 20 75 37 40 21 34
internal_value=0 -0.00403557 0.00228243 -0.00350963 0.00263148 0.00307039 -0.000405269 0.00344125 0.00119976 -0.00115093 -0.00392414 0.000285514 -0.00041857 -0.001945 0.00364515 0.00137934 0.00271556 0.000252584 0.00175376 0.00285903 0.0011763 -0.0037135 0.00096428 0.000426441 0.00196076 0.00181992 0.00119589 0.00291928 -0.00540244 -0.00097595
internal_weight=0 1263 1305 1037 1155 884 150 725 271 155 882 44 122 89 681 159 184 99 216 90 69 772 126 102 121 139 77 64 110 55
internal_count=2568 1263 1305 1037 1155 884 150 725 271 155 882 44 122 89 681 159 184 99 216 90 69 772 126 102 121 139 77 64 110 55
is_linear=0
shrinkage=0.1


Tree=18
num_leaves=31
num_cat=0
split_feature=1 1 68 42 4 44 42 6 4 5 1 3 6 67 43 41 7 1 70 5 45 8 5 5 41 40 4 6 40 6
split_gain=2.41633 0.226933 0.131767 0.0856506 0.0489827 0.0439345 0.0431387 0.0380611 0.0332094 0.0302974 0.0286759 0.0285374 0.0229506 0.0220824 0.017708 0.0173105 0.0169027 0.0321915 0.0168598 0.0144719 0.0168015 0.0143466 0.0213745 0.0138296 0.0126865 0.0124583 0.0153256 0.0119804 0.0107225 0.0106278
threshold=36.000000000000007 61445.000000000007 1.0000000180025095e-35 0.24020000000000002 0.59785153586312545 602.50000000000011 0.023487243439122316 0.20571607561650065 0.0051338421545911754 1.4205610887214291 268757.00000000006 0.0026975601531828808 0.56376246437999178 0.0038215894865716868 1.0000000180025095e-35 6.0000000000000009 0.99125805530313993 1259.0000000000002 14.000000000000002 0.79247554405180243 0.79465170640834593 0.061172431101334489 1.0814384164222877 0.99875000000000014 14.000000000000002 22.500000000000004 0.024473191999358671 0.00209457 3313.5000000000005 0.018365612827760312
decision_type=2 2 2 2 2 2 2 2 2 2 2 2 2 2 2 2 2 2 2 2 2 2 2 2 2 2 2 2 2 2
left_child=2 3 14 5 6 7 9 21 15 12 -8 27 -3 29 -1 -9 17 -5 -4 20 -13 22 25 -23 -12 26 -2 -6 -19 -11
right_child=1 4 18 16 11 -7 10 8 -10 13 24 19 -14 -15 -16 -17 -18 28 -20 -21 -22 23 -24 -25 -26 -27 -28 -29 -30 -31
leaf_value=-0.064613879948189998 0.026110008601844117 0.074118846341658801 -0.064842235471366472 0.0011594938034281911 0.03137330845117816 -0.006462249753713678 -0.0030085093455397786 0.0084123774909070203 -0.01407213080966585 0.067107105872516115 0.02946198850352566 -0.0046792682835693714 0.022361600003226203 -0.0061882078369208671 -0.058817892799770281 -0.006336120020924341 -0.014657068837826871 -0.021774306641852804 -0.065153320406289877 0.0056491938312575492 0.0014388210003101422 -0.0034142571770068744 -0.0018690187628955359 0.0021379344139955238 0.008552413856651243 0.005830767017530292 0.0044102615242369581 0.018281737744410977 -0.0044325710875359192 0.0085965440355025187
leaf_weight=315 100 523 187 27 39 46 29 31 22 27 31 27 100 23 21 30 36 33 585 40 28 24 26 28 37 40 40 23 20 30
leaf_count=315 100 523 187 27 39 46 29 31 22 27 31 27 100 23 21 30 36 33 585 40 28 24 26 28 37 40 40 23 20 30
internal_value=0 0.00177827 -0.00441514 5.85983e-05 0.00268212 0.00077302 0.00299906 0.00116436 -0.000698307 0.00327183 0.00102218 0.00106717 0.00350708 0.00143984 -0.00606814 0.000502955 -0.00232486 -0.0015151 -0.0036957 -2.19891e-05 -0.00107456 0.00176358 0.00213824 0.000279369 0.00214502 0.00252538 0.00297007 0.00273604 -0.00294686 0.00249521
internal_weight=0 1460 1108 503 957 387 800 341 83 703 97 157 623 80 336 61 116 80 772 95 55 258 206 52 68 180 140 62 53 57
internal_count=2568 1460 1108 503 957 387 800 341 83 703 97 157 623 80 336 61 116 80 772 95 55 258 206 52 68 180 140 62 53 57
is_linear=0
shrinkage=0.1


Tree=19
num_leaves=31
num_cat=0
split_feature=1 1 11 4 42 44 1 8 44 6 6 41 3 45 24 1 3 66 7 3 5 42 5 1 3 70 39 70 41 1
split_gain=2.2676 0.204689 0.122923 0.0680433 0.0683327 0.0505412 0.0380382 0.0345554 0.0386147 0.0319763 0.0310903 0.0236537 0.0224255 0.0218937 0.0208029 0.0203711 0.0345546 0.0169606 0.0220664 0.0156362 0.0150701 0.0147902 0.014312 0.0213539 0.0140299 0.0136971 0.0163039 0.0154047 0.0133395 0.0130145
threshold=36.000000000000007 15504.000000000002 1.0000000180025095e-35 0.16255057887533106 0.00082820000000000007 991.00000000000011 101000.00000000001 0.32730117523947522 64.500000000000014 0.15552056297232111 0.51980185759420072 14.000000000000002 0.57183025238095253 0.0824679058414889 1.0000000180025095e-35 152500.00000000003 0.0019855822625848016 10.000000000000002 0.018835546448990388 0.51900000000000013 0.79247554405180243 0.48697266666666678 1.0814384164222877 98990.000000000015 0.076635306122448996 42.000000000000007 1.0000000180025095e-35 14.000000000000002 24.787597656250018 1705.0000000000002
decision_type=2 2 2 2 2 2 2 2 2 2 2 2 2 2 2 2 2 2 2 2 2 2 2 2 2 2 2 2 2 2
left_child=2 7 14 4 5 10 -6 8 9 13 22 -8 -7 -2 25 17 -17 18 -5 -15 -18 -9 28 -24 -12 26 27 -1 -3 -11
right_child=1 3 -4 15 6 12 11 21 -10 29 24 -13 -14 19 -16 16 20 -19 -20 -21 -22 -23 23 -25 -26 -27 -28 -29 -30 -31
leaf_value=-0.057817469321690851 0.000851361838866005 0.067494340900853808 -0.058311249612119913 0.0008413127185239234 -0.0025254086832951828 0.028728606949553284 0.030330367488960522 -0.0043953315901266166 -0.0087617112779025067 -0.0014088658633937712 0.029253256237312189 0.0066700723824521194 -0.00058598460472225611 0.020169221585243948 -0.050540309573326961 0.035059362343791277 -0.002591496438756025 0.016794539058597024 -0.0072899794829048405 0.0068581052525594549 0.014111574695311192 -0.032522295998829519 -0.0014528212152967513 0.055934256523601539 0.004061495090620682 -0.058933156676787141 -0.062996582990253458 -0.058487041416202604 0.050478062952054974 -0.013613818243814536
leaf_weight=203 110 412 226 34 58 53 54 42 25 28 64 53 66 21 21 70 40 23 34 26 45 21 21 51 56 110 73 475 33 20
leaf_count=203 110 412 226 34 58 53 54 42 25 28 64 53 66 21 21 70 40 23 34 26 45 21 21 51 56 110 73 475 33 20
internal_value=0 0.00163173 -0.00436804 0.00222502 0.00261965 0.00302206 0.000775896 -0.00073132 -0.000162951 0.000289535 0.00337546 0.00189376 0.00113033 0.000980106 -0.00383486 0.000747545 0.0014448 -0.000440095 -0.00123408 0.00278668 8.98438e-05 -0.00280632 0.00371204 0.002404 0.00192536 -0.00375902 -0.00360637 -0.00345348 0.00392367 -0.00196921
internal_weight=0 1460 1108 1167 921 756 165 293 230 205 637 107 119 157 882 246 155 91 68 47 85 63 517 72 120 861 751 678 445 48
internal_count=2568 1460 1108 1167 921 756 165 293 230 205 637 107 119 157 882 246 155 91 68 47 85 63 517 72 120 861 751 678 445 48
is_linear=0
shrinkage=0.1


Tree=20
num_leaves=31
num_cat=0
split_feature=1 1 11 4 41 44 42 1 6 6 44 4 41 1 24 5 42 3 1 41 70 7 5 5 5 42 3 66 1 6
split_gain=2.14756 0.214623 0.128572 0.0546724 0.0436708 0.0415855 0.0412409 0.0342546 0.0313521 0.0306734 0.030191 0.0234603 0.0216902 0.0219953 0.0216049 0.0208641 0.0199377 0.0185832 0.0181373 0.0418684 0.0153427 0.0150658 0.0148296 0.0146055 0.0319082 0.0141417 0.0134886 0.0162242 0.0132382 0.0129687
threshold=36.000000000000007 61445.000000000007 1.0000000180025095e-35 0.59785153586312545 24.787597656250018 54201.500000000007 0.24020000000000002 997404.50000000012 0.32106786506922058 0.074570186442976846 253.50000000000003 0.0051338421545911754 1.0000000180025095e-35 8069.0000000000009 1.0000000180025095e-35 1.0721647412552977 0.074079431543204108 0.0019855822625848016 1259.0000000000002 14.000000000000002 42.000000000000007 0.0007635218681334967 8.3873515302410539e-05 0.99875000000000014 8.3873515302410539e-05 0.014737408416046814 0.48927033011272147 14.000000000000002 342336.00000000006 0.99630637254901977
decision_type=2 2 2 2 2 2 2 2 2 2 2 2 2 2 2 2 2 2 2 2 2 2 2 2 2 2 2 2 2 2
left_child=2 6 14 4 5 9 8 -7 10 25 12 -10 13 -2 20 23 -6 22 19 -8 -1 -11 -5 24 -14 -3 29 -28 -27 -23
right_child=1 3 -4 17 16 7 18 -9 11 21 -12 -13 15 -15 -16 -17 -18 -19 -20 -21 -22 26 -24 -25 -26 28 27 -29 -30 -31
leaf_value=-0.05258044924357641 0.0054526106174034089 0.067319613291697777 -0.05248012465090799 0.03155342610941219 0.024686745651225552 -0.010638142690171293 0.0035304641057383179 0.013107920208827296 -0.00031391229906283516 0.061529541998058691 -0.0037397365831122187 -0.01252403114235996 0.007846523188903021 0.028913467919257842 -0.045486278615994281 -0.0036992872100835685 -0.0022728678149658067 -0.00067143223624945849 -0.01200104815898051 -0.016176754708060948 -0.053039841009108461 0.033101072167490746 0.0081995061852250476 0.0076547679935046638 -0.0059451229338392869 0.0084279780698036429 -0.0084768079116638983 0.032520916390347314 0.021180446390313891 0.0029465557865162141
leaf_weight=751 35 417 226 24 75 22 25 30 61 37 49 23 43 49 21 21 20 96 70 21 110 77 37 76 30 24 25 23 29 21
leaf_count=751 35 417 226 24 75 22 25 30 61 37 49 23 43 49 21 21 20 96 70 21 110 77 37 76 30 24 25 23 29 21
internal_value=0 0.00151804 -0.00432077 0.00239704 0.00273188 0.0030031 -0.000154335 0.000281454 0.000341405 0.00321983 0.000815315 -0.00136806 0.00125374 0.00256836 -0.00377548 0.000604168 0.000719159 0.000690869 -0.00180822 -0.000265717 -0.00369819 0.00212146 0.00205571 0.00102007 9.8622e-06 0.00364749 0.00166469 0.000291283 0.00210887 0.00233738
internal_weight=0 1460 1108 957 800 705 503 52 387 653 303 84 254 84 882 170 95 157 116 46 861 183 61 149 73 470 146 48 53 98
internal_count=2568 1460 1108 957 800 705 503 52 387 653 303 84 254 84 882 170 95 157 116 46 861 183 61 149 73 470 146 48 53 98
is_linear=0
shrinkage=0.1


Tree=21
num_leaves=31
num_cat=0
split_feature=1 1 11 40 3 4 6 44 4 41 5 7 3 4 41 44 6 1 1 42 1 68 70 5 40 45 1 3 44 7
split_gain=2.06569 0.186422 0.134285 0.061931 0.0507218 0.0477651 0.0402156 0.033604 0.0324946 0.0311119 0.0337745 0.0266535 0.0241014 0.0232588 0.022163 0.0256039 0.0217625 0.0201095 0.0239968 0.0198679 0.0183233 0.0159613 0.0168598 0.0155506 0.0153518 0.0141603 0.0172494 0.0118991 0.0184467 0.0115043
threshold=36.000000000000007 101000.00000000001 1.0000000180025095e-35 890.50000000000011 0.087144192396555353 0.0011395790165105279 0.49999843750000006 1474.5000000000002 0.59785153586312545 1.0000000180025095e-35 1.0721647412552977 1.0149323118192821 0.51182044708538654 1.0099875000000003 24.787597656250018 70626.000000000015 0.41418474024406232 28921.000000000004 1259.0000000000002 0.84773500000000013 13.500000000000002 1.0000000180025095e-35 14.000000000000002 8.3873515302410539e-05 1209.5000000000002 0.59215769710172728 838531.00000000012 0.00013171807399532694 1.0000000180025095e-35 0.52911051840907442
decision_type=2 2 2 2 2 2 2 2 2 2 2 2 2 2 2 2 2 2 2 2 2 2 2 2 2 2 2 2 2 2
left_child=2 3 20 5 13 7 23 9 14 -2 11 17 -5 24 15 16 -6 18 -11 -14 21 -1 -23 -7 29 -10 -27 -25 -29 -3
right_child=1 4 -4 12 8 6 -8 -9 25 10 -12 -13 19 -15 -16 -17 -18 -19 -20 -21 -22 22 -24 27 -26 26 -28 28 -30 -31
leaf_value=-0.1014804195747363 0.030942478889475211 0.087666337637780256 -0.047232112185817243 -0.0014364718134057598 0.043608869542071466 0.0070618708700127542 -0.028271982015017728 -0.0052934977291180024 -0.011350801656968203 0.0058192483167296416 -0.0038012127325085746 -0.0025253752101271234 -0.013309002473902966 0.012767560449405125 0.0046716793249647285 0.00053642812476724095 0.0068558122376952474 0.022291792495873253 -0.0011767265126863436 -0.0050798673273895652 -0.018419514154981977 -0.047318220067703191 -0.047531239299682865 -0.0092258085173103407 0.0056996438320741308 0.024723468559729869 -0.0016591976302009926 0.001714084642600966 -0.0075115664918008924 0.051597860642731419
leaf_weight=65 115 206 226 47 217 48 26 25 24 31 39 31 34 24 51 39 68 77 64 25 45 187 585 20 20 21 30 44 20 114
leaf_count=65 115 206 226 47 217 48 26 25 24 31 39 31 34 24 51 39 68 77 64 25 45 187 585 20 20 21 30 44 20 114
internal_value=0 0.00145243 -0.00427399 0.000183995 0.00245907 0.000617799 -0.000844586 0.00122266 0.00174912 0.00147086 0.000827327 0.00134514 -0.00202595 0.00333676 0.00212915 0.00243416 0.002763 0.0018316 0.000858132 -0.00337178 -0.00371673 -0.00382241 -0.0036957 -0.000136528 0.00354914 -0.000151013 0.000791583 -0.000957007 -0.000291668 0.00371713
internal_weight=0 1460 1108 646 814 540 158 382 450 357 242 203 106 364 375 324 285 172 95 59 882 837 772 132 340 75 51 84 64 320
internal_count=2568 1460 1108 646 814 540 158 382 450 357 242 203 106 364 375 324 285 172 95 59 882 837 772 132 340 75 51 84 64 320
is_linear=0
shrinkage=0.1


Tree=22
num_leaves=31
num_cat=0
split_feature=1 1 11 4 46 41 6 3 7 3 41 44 44 4 42 3 1 6 8 5 46 40 24 70 1 6 8 40 5 41
split_gain=1.97274 0.174343 0.127815 0.0590125 0.0543731 0.0595916 0.0488175 0.0478071 0.0482295 0.0327295 0.0284195 0.0274855 0.0219466 0.0304419 0.0201326 0.0269356 0.0191523 0.0177071 0.0253388 0.0218182 0.0145912 0.0143508 0.0140566 0.0151451 0.010599 0.0105152 0.00989915 0.00957503 0.00936405 0.00914567
threshold=22.000000000000004 101000.00000000001 1.0000000180025095e-35 0.59785153586312545 0.023035200757162099 1.0000000180025095e-35 0.41418474024406232 0.54147673045256062 0.12254339845524763 0.0099751243781094536 24.787597656250018 26877.000000000004 253.50000000000003 0.10725167877661193 0.84773500000000013 0.97935239857912249 997404.50000000012 0.69734937265385233 0.33443958841333171 0.026922749604666299 0.00060139633475800997 27.500000000000004 1.0000000180025095e-35 42.000000000000007 1059596.0000000002 0.71847415391747804 0.00095556695277216653 904.00000000000011 1.0669690741704216 17.962890625000011
decision_type=2 2 2 2 2 2 2 2 2 2 2 2 2 2 2 2 2 2 2 2 2 2 2 2 2 2 2 2 2 2
left_child=2 4 22 6 5 12 9 8 28 -3 11 -11 13 26 27 -16 -13 18 19 -10 -5 -6 23 -1 25 -8 -2 -9 29 -7
right_child=1 3 -4 20 21 7 24 14 17 10 -12 16 -14 -15 15 -17 -18 -19 -20 -21 -22 -23 -24 -25 -26 -27 -28 -29 -30 -31
leaf_value=-0.042816499128085363 0.032720355154394552 0.087149843078700689 -0.042508900967235523 0.0062456828704672068 -0.0041766526561399786 0.0077190296537846597 -0.0083147083442671743 -0.0079717969471545299 0.00427110171064129 0.044902256830099678 0.0042045113924682907 -0.0061481962792928613 -0.0073670603398465319 -0.0013104760996256459 0.0035170613911514438 -0.0074574410908553549 0.013658852556694258 -0.018915181097139213 0.0017162536572762122 -0.0029922835888761771 -0.0022521211916480158 -0.015958424356189483 -0.030789608796921188 -0.042982732978229347 0.020985275318037823 0.006170231013925687 0.0068322034204022948 -0.011978102226512632 -1.5029521027898341e-05 0.0018315701579503241
leaf_weight=719 81 200 226 120 32 123 25 65 46 233 50 24 20 35 21 21 27 32 25 51 20 27 21 110 61 54 20 21 20 38
leaf_count=719 81 200 226 120 32 123 25 65 46 233 50 24 20 35 21 21 27 32 25 51 20 27 21 110 61 54 20 21 20 38
internal_value=0 0.00128235 -0.00433513 0.0022689 9.79046e-05 0.000374381 0.00265696 -0.000195152 0.000432961 0.00309272 0.00248691 0.00287395 0.00206473 0.00251958 -0.00183904 -4.44374e-05 0.000771212 -0.000867846 -0.000318675 -0.00105031 0.000400693 -0.00280275 -0.00377314 -0.00370842 0.000994831 0.000230256 0.0034003 -0.00271548 0.00153973 0.00179324
internal_weight=0 1492 1076 814 678 619 674 463 335 534 334 284 156 136 128 42 51 154 122 97 140 59 850 829 140 79 101 86 181 161
internal_count=2568 1492 1076 814 678 619 674 463 335 534 334 284 156 136 128 42 51 154 122 97 140 59 850 829 140 79 101 86 181 161
is_linear=0
shrinkage=0.1


Tree=23
num_leaves=31
num_cat=0
split_feature=1 1 11 4 46 6 42 41 3 1 4 4 6 7 41 44 41 3 44 1 70 46 1 6 4 3 3 42 3 66
split_gain=1.89273 0.166248 0.130844 0.0616551 0.0534185 0.0445577 0.0469309 0.0315216 0.0270479 0.0251329 0.024279 0.0224689 0.0207082 0.0194527 0.0187952 0.0174716 0.0174558 0.016717 0.0160585 0.0177158 0.0141851 0.0141092 0.0140001 0.0123333 0.0107936 0.00884861 0.0152607 0.0135317 0.00954399 0.00828551
threshold=22.000000000000004 63445.000000000007 1.0000000180025095e-35 0.57779931564194975 0.24263891475755886 0.17770135020227162 0.019240384615384621 26.991210937500007 0.36043000000000008 3198.5000000000005 0.081584308361589378 0.57779931564194975 0.039193199025700849 0.27887912942849902 1.0000000180025095e-35 220.00000000000003 10.000000000000002 0.3482452982544062 25330.000000000004 8266070.5000000009 42.000000000000007 0.00060139633475800997 997404.50000000012 0.4647746520928413 3.9087611394580952e-05 0.00010293750000000002 0.36043000000000008 0.0014831378299120237 0.68157324737392433 14.000000000000002
decision_type=2 2 2 2 2 2 2 2 2 2 2 2 2 2 2 2 2 2 2 2 2 2 2 2 2 2 2 2 2 2
left_child=2 4 20 5 7 6 8 9 10 11 -3 -2 14 -7 15 24 -8 23 19 -10 -1 -5 29 -14 -11 -16 27 -27 -28 -15
right_child=1 3 -4 21 -6 13 16 -9 18 12 -12 -13 17 22 25 -17 -18 -19 -20 -21 -22 -23 -24 -25 -26 26 28 -29 -30 -31
leaf_value=-0.038534849215276883 -0.00032826914216279592 0.070574963096405346 -0.038258010870512039 0.0031479348221633788 -0.014362581920570605 0.028205370058469726 0.014636614889705158 -0.0085296118372262704 0.040605509717915572 0.034795257664245939 0.01075217477419379 -0.023483747106189768 -0.0033841350381155879 -0.0027023468336494719 -0.00050178543810837091 -0.0015560704853857744 -0.0021452330274062347 -0.0068791552547942565 0.0010976049402195542 -0.0034042525766114552 -0.038684459680406395 -0.0020269090724831075 0.015759509800755113 0.0020227231704229355 0.014969689450375868 0.015173379018079913 -0.0051912581272706149 0.0016484131421552917 0.002740079124237127 0.018823948004497739
leaf_weight=740 133 293 226 138 27 52 37 33 131 37 36 33 24 56 37 20 48 27 37 20 110 21 61 33 20 29 21 35 29 24
leaf_count=740 133 293 226 138 27 52 37 33 131 37 36 33 24 56 37 20 48 27 37 20 110 21 61 33 20 29 21 35 29 24
internal_value=0 0.00119215 -0.00431023 0.00198486 -0.000213497 0.00234438 0.00276827 1.5551e-05 0.00312628 0.000221916 0.00367305 -0.000772184 0.000750829 0.00102218 0.00124533 0.00251678 0.000590727 -0.000591385 0.00216944 0.00262693 -0.00374162 0.000187247 0.000412494 0.000379535 0.00340905 0.000596974 0.00103309 0.00205574 -0.000275917 -0.00045762
internal_weight=0 1492 1076 954 538 795 602 511 517 478 329 166 312 193 228 77 85 84 188 151 850 159 141 57 57 151 114 64 50 80
internal_count=2568 1492 1076 954 538 795 602 511 517 478 329 166 312 193 228 77 85 84 188 151 850 159 141 57 57 151 114 64 50 80
is_linear=0
shrinkage=0.1


Tree=24
num_leaves=31
num_cat=0
split_feature=1 1 11 4 6 42 3 41 44 4 46 41 5 1 6 41 45 42 41 7 42 6 3 42 4 70 8 44 6 7
split_gain=1.81107 0.165556 0.132446 0.0510436 0.0430434 0.0394632 0.0304169 0.0266266 0.0250577 0.0240624 0.0262851 0.026979 0.0240332 0.0231886 0.0203238 0.0186976 0.0168684 0.0164902 0.0237623 0.0158999 0.0161291 0.0156334 0.0208477 0.0315211 0.0150407 0.0146309 0.0143351 0.013906 0.0135912 0.0101301
threshold=22.000000000000004 101000.00000000001 1.0000000180025095e-35 0.57779931564194975 0.46934781250000007 0.10315272507999697 0.0099751243781094536 24.787597656250018 26877.000000000004 0.00095891719248894578 0.016847971886552304 1.0000000180025095e-35 1.0814384164222877 997404.50000000012 0.20571607561650065 21.962890625000011 0.53801500000000013 4.6752025177228103e-05 6.0000000000000009 0.46962500000000001 2.9342972711905341e-05 0.65380594758278188 0.58345771144278624 0.77106399176230378 0.016992539131492543 42.000000000000007 0.00091436086107862021 629.50000000000011 0.072130254313096873 0.5093895565885499
decision_type=2 2 2 2 2 2 2 2 2 2 2 2 2 2 2 2 2 2 2 2 2 2 2 2 2 2 2 2 2 2
left_child=2 5 25 4 6 9 28 8 24 10 11 26 16 -10 17 21 19 18 -11 20 -13 22 -7 -24 -8 -1 -2 -5 -3 -6
right_child=1 3 -4 27 29 15 7 -9 13 14 -12 12 -14 -15 -16 -17 -18 -19 -20 -21 -22 -23 23 -25 -26 -27 -28 -29 -30 -31
leaf_value=-0.03468136429374926 0.023461143069460278 0.078028785902670358 -0.034432209783460802 0.0046487621403464635 0.018313343046366982 0.001483571827939656 0.037205082347349004 0.0039985835559619431 -0.0056431371453854245 0.00092777395532266387 -0.003071071865046804 0.024353270123610573 -0.0063133614200136636 0.012183206807002734 -0.0059424387803826313 -0.017668455996387777 -0.006365442271656363 0.0048813350999544983 -0.0029548506163166624 0.00019581311167335969 0.0069973052322168886 -0.012874808196348654 -0.020632942187248562 0.00018865191632162493 0.0049527081532964702 -0.034816013712365826 0.0015661642014897837 -0.0018242181652347257 0.025384833052622825 0.00077949532307002305
leaf_weight=740 90 176 226 122 41 60 217 50 24 63 31 48 28 27 30 21 27 25 37 59 39 31 27 39 20 110 23 20 25 92
leaf_count=740 90 176 226 122 41 60 217 50 24 63 31 48 28 27 30 21 27 25 37 59 39 31 27 39 20 110 23 20 25 92
internal_value=0 0.0010852 -0.00429718 0.00204657 0.00241058 -6.90095e-05 0.00280814 0.00222884 0.00259866 0.000386195 0.000851182 0.00112544 0.000430434 0.000587886 -0.000648777 -0.00134767 0.000870344 -8.78036e-05 -0.000662088 0.00129498 0.00215437 -0.000972836 -0.000477873 -0.00170432 0.00303136 -0.0037251 0.00236169 0.000323912 0.00378229 0.00079943
internal_weight=0 1492 1076 814 672 678 539 338 288 500 345 314 201 51 155 178 173 125 100 146 87 157 126 66 237 850 113 142 201 133
internal_count=2568 1492 1076 814 672 678 539 338 288 500 345 314 201 51 155 178 173 125 100 146 87 157 126 66 237 850 113 142 201 133
is_linear=0
shrinkage=0.1


Tree=25
num_leaves=31
num_cat=0
split_feature=1 11 1 4 42 6 42 44 44 4 42 8 42 41 45 6 6 70 6 4 1 5 3 3 1 7 1 40 3 40
split_gain=1.73613 0.134003 0.128507 0.0557974 0.0539133 0.0493969 0.0373135 0.0280492 0.0234978 0.023931 0.0240166 0.0279482 0.0194154 0.0260989 0.0180103 0.015936 0.015208 0.0150681 0.0150471 0.0137331 0.0145358 0.0134812 0.0134438 0.012772 0.0114477 0.0112849 0.0112205 0.0284906 0.0108026 0.00934648
threshold=22.000000000000004 1.0000000180025095e-35 101000.00000000001 0.2773837788400052 0.10761955104419542 0.46934781250000007 0.22728056572555097 8728.5000000000018 1474.5000000000002 0.00095891719248894578 2.9342972711905341e-05 0.00064276243333113005 4.6752025177228103e-05 6.0000000000000009 0.52117396818894424 0.032098992206396136 0.65380594758278188 42.000000000000007 0.5006250000000001 0.016992539131492543 8836464.5000000019 1.2060036159343797 0.0011962484064295378 0.56002816666666677 8069.0000000000009 0.81861142616171545 1259.0000000000002 3610.5000000000005 0.017511369252631328 25.000000000000004
decision_type=2 2 2 2 2 2 2 2 2 2 2 2 2 2 2 2 2 2 2 2 2 2 2 2 2 2 2 2 2 2
left_child=1 17 6 4 5 7 8 19 9 10 11 14 13 -11 15 -2 26 -1 -13 20 -4 -9 -5 -6 -16 -15 29 -28 -12 -8
right_child=2 -3 3 22 23 -7 16 21 -10 12 28 18 -14 25 24 -17 -18 -19 -20 -21 -22 -23 -24 -25 -26 -27 27 -29 -30 -31
leaf_value=-0.031213227864374284 0.021677424872329532 -0.030988988805114737 0.051264124374791109 0.018071943704413587 0.0051573978011045796 0.010245715527242183 -0.0055543870631607822 0.015618381006047601 -0.0053481949023442615 0.00013490425032749442 -0.0082566533123706876 -0.0027201803844718597 0.0011482358880652299 -0.0026334272819816817 -0.0037722212414539771 0.00017623180050598821 -0.011587327376713931 -0.031334412341129263 0.010787271785713771 0.013370395649720025 0.030997803878799957 -0.0019120696236562653 -0.0008845440062962951 -0.004094835720606582 0.010900417362515215 -0.0042445913275276585 -0.019863139317689973 0.0014881626809408743 0.0015792708028847359 0.0017101449470867892
leaf_weight=740 91 226 334 70 31 121 22 43 34 69 26 39 37 29 23 20 28 110 22 31 35 27 101 21 48 20 40 31 73 26
leaf_count=740 91 226 334 70 31 121 22 43 34 69 26 39 37 29 23 20 28 110 22 31 35 27 101 21 48 20 40 31 73 26
internal_value=0 -0.00428458 0.000985278 0.00183227 0.00225923 0.00253085 -3.16162e-05 0.00299472 0.000358711 0.000532703 0.000999851 0.00153473 -0.000498038 -0.00112475 0.00215561 0.0029512 -0.00144158 -0.00370914 -0.00031771 0.00331789 0.00348772 0.00114804 0.000226804 -0.000827751 0.000911787 -0.00288955 -0.000948194 -0.0017466 -0.000313038 0.000232785
internal_weight=0 1076 1492 814 643 591 678 470 531 497 342 243 155 118 182 111 147 850 61 400 369 70 171 52 71 49 119 71 99 48
internal_count=2568 1076 1492 814 643 591 678 470 531 497 342 243 155 118 182 111 147 850 61 400 369 70 171 52 71 49 119 71 99 48
is_linear=0
shrinkage=0.1


Tree=26
num_leaves=31
num_cat=0
split_feature=1 11 1 42 44 6 4 42 1 1 70 6 41 5 3 41 4 7 41 5 44 41 4 7 66 1 44 7 41 3
split_gain=1.65376 0.146846 0.0922788 0.0420459 0.0413248 0.0388338 0.038624 0.0345453 0.0238542 0.0201878 0.0200643 0.0177311 0.0174089 0.0161396 0.0156789 0.0177147 0.0152807 0.0184719 0.0164727 0.021718 0.0144334 0.0205287 0.0292383 0.0195219 0.015614 0.0141088 0.0123415 0.0128923 0.0112611 0.0109395
threshold=28.500000000000004 1.0000000180025095e-35 101000.00000000001 0.0034175010985069902 34880.500000000007 0.00209457 0.15338374764000004 0.49726686217008803 1059596.0000000002 5439.0000000000009 30.000000000000004 0.00096071731396401856 10.000000000000002 0.67361727299615504 0.23738119073687972 14.000000000000002 0.99250000000000005 0.46614756902519527 10.000000000000002 0.99875000000000014 253.50000000000003 6.0000000000000009 0.016992539131492543 0.0099011555873242812 6.0000000000000009 33963.500000000007 2.5000000000000004 0.27311005072331956 14.000000000000002 0.10412254454584964
decision_type=2 2 2 2 2 2 2 2 2 2 2 2 2 2 2 2 2 2 2 2 2 2 2 2 2 2 2 2 2 2
left_child=1 10 7 4 5 6 14 9 -6 12 -1 20 13 -2 -4 -16 17 29 19 -19 21 22 -11 25 -22 -23 27 -15 -9 -7
right_child=2 -3 3 -5 8 16 -8 28 -10 11 -12 -13 -14 26 15 -17 -18 18 -20 -21 24 23 -24 -25 -26 -27 -28 -29 -30 -31
leaf_value=-0.02734298463726308 0.006578974384723324 -0.027890089924603248 0.071511606035545947 -0.00023963813757212906 -0.0066406615314516422 0.040843447858026141 0.0099183470566277521 -0.0021820939753411039 0.0094030480256979132 0.02146683524160551 -0.028332681486807055 -0.00014682542624839813 -0.0042443481934245856 0.0045415722145202512 0.037562841636087543 0.00073303922686847052 -0.012779762998632194 0.035702834084347761 -0.0028874056922106209 -0.0051173424558704998 0.00021326304078250757 0.010204936365433782 -0.0012703768010648986 -0.0038201321947749279 -0.0046611790070823387 0.001523767823723432 -0.014423888450743761 -0.0028388300084712273 -0.011804555835772135 0.0048940360636450467
leaf_weight=579 33 226 180 110 27 42 114 52 31 90 299 144 47 32 115 28 26 53 38 30 24 20 36 34 20 45 22 20 31 20
leaf_count=579 33 226 180 110 27 42 114 52 31 90 299 144 47 32 115 28 26 53 38 30 24 20 36 34 20 45 22 20 31 20
internal_value=0 -0.00417561 0.000950387 0.00165984 0.00194393 0.0021735 0.0027097 6.19304e-05 -0.00061301 0.000340854 -0.00359048 0.00070522 -0.000636311 6.83544e-05 0.00326822 0.00248654 0.00105237 0.00137467 0.0006555 0.00144498 0.00118462 0.00150854 0.00235523 0.000430946 -0.000471812 0.00144655 -0.000751801 8.81975e-05 -0.00184349 0.00277822
internal_weight=0 1104 1464 814 704 646 437 650 58 567 878 413 154 107 323 143 209 183 121 83 269 225 126 99 44 65 74 52 83 62
internal_count=2568 1104 1464 814 704 646 437 650 58 567 878 413 154 107 323 143 209 183 121 83 269 225 126 99 44 65 74 52 83 62
is_linear=0
shrinkage=0.1


Tree=27
num_leaves=31
num_cat=0
split_feature=1 11 1 4 3 41 6 6 42 6 46 41 42 44 41 1 70 3 41 5 5 1 1 7 3 5 7 1 4 1
split_gain=1.62948 0.136935 0.0851859 0.0432565 0.037695 0.0298892 0.0272414 0.0244149 0.0236396 0.022784 0.0258232 0.0243211 0.022778 0.0217883 0.0163789 0.0221957 0.0160674 0.0140532 0.0134476 0.0128437 0.0122094 0.0139637 0.0136868 0.0146856 0.0111905 0.0111723 0.0160663 0.0110588 0.0101869 0.00978746
threshold=13.500000000000002 1.0000000180025095e-35 101000.00000000001 0.16553958830666402 0.0073965109590778772 14.000000000000002 0.70233370819209917 0.10912303450792082 0.10761955104419542 0.46934781250000007 0.1663774084649027 14.000000000000002 0.48697266666666678 88.000000000000014 1.0000000180025095e-35 2342.5000000000005 42.000000000000007 0.97664566178069423 6.0000000000000009 0.79247554405180243 1.0721647412552977 15504.000000000002 36.000000000000007 0.12254339845524763 0.00048016189599800539 0.0097021285441090902 0.0099011555873242812 8266070.5000000009 0.75494091583784417 10859.000000000002
decision_type=2 2 2 2 2 2 2 2 2 2 2 2 2 2 2 2 2 2 2 2 2 2 2 2 2 2 2 2 2 2
left_child=1 16 5 4 7 13 12 -4 9 10 11 27 25 14 15 -2 -1 20 -9 -5 22 -22 -16 28 -21 -7 -27 -6 -24 -15
right_child=2 -3 3 19 8 6 -8 18 -10 -11 -12 -13 -14 29 17 -17 -18 -19 -20 24 21 -23 23 -25 -26 26 -28 -29 -30 -31
leaf_value=-0.025480805774028961 -0.0040528965557808053 -0.02510108093214285 0.063796693357940276 -0.0015755521956222652 0.033579930148208349 0.0099455392101916121 -0.016305070916225618 0.050323339466618225 -0.0024582354698615919 0.0034913235769060691 -0.001643466802343241 0.010179684626522346 -0.019272043875558965 -0.013891528403203424 -0.0022673646969064267 0.020385954305172406 -0.025367702958335594 -0.0039617386768409091 -0.0011119643511523947 0.023592953619350255 0.0010189551058797264 -0.0043205584247893117 0.010168612273063716 0.00013609636791969137 0.00025870762788215984 0.00034946254618084538 -0.0033542662307223027 0.0089733293023993351 0.0003755148607865522 -0.001570421878520989
leaf_weight=727 28 226 164 89 162 24 32 32 52 80 38 66 28 21 23 110 110 20 23 34 20 20 88 105 54 63 33 20 26 50
leaf_count=727 28 226 164 89 162 24 32 32 52 80 38 66 28 21 23 110 110 20 23 34 20 20 88 105 54 63 33 20 26 50
internal_value=0 -0.00426458 0.00084973 0.0015429 0.00192717 3.31691e-05 -0.00107497 0.00298994 0.00137036 0.00165382 0.00207111 0.00244306 -0.00050293 0.00042351 0.000685813 0.00158838 -0.00367481 0.000273382 0.00116669 0.000159986 0.000455048 -0.00116341 0.000722561 0.000966278 0.00101665 9.633e-05 -0.000386119 0.00303941 0.00175218 -0.00120203
internal_weight=0 1063 1505 814 637 691 180 219 418 366 286 248 148 511 440 138 837 302 55 177 282 40 242 219 88 120 96 182 114 71
internal_count=2568 1063 1505 814 637 691 180 219 418 366 286 248 148 511 440 138 837 302 55 177 282 40 242 219 88 120 96 182 114 71
is_linear=0
shrinkage=0.1


Tree=28
num_leaves=31
num_cat=0
split_feature=1 11 1 4 1 40 44 7 6 44 5 6 6 40 3 46 66 70 8 44 3 1 41 5 1 3 41 7 42 40
split_gain=1.60392 0.136935 0.0738221 0.0444106 0.0451518 0.0347132 0.044121 0.0335873 0.0251504 0.0324558 0.0186347 0.0224434 0.0181964 0.0172691 0.0172597 0.0171054 0.0168027 0.0160674 0.0158499 0.0152689 0.0144497 0.0168746 0.0143123 0.0129885 0.0166486 0.0133192 0.0123139 0.010501 0.0104829 0.0101031
threshold=13.500000000000002 1.0000000180025095e-35 5439.0000000000009 0.12215862898254896 1059596.0000000002 1575.5000000000002 2437.5000000000005 0.46962500000000001 0.70233370819209917 37.000000000000007 0.026922749604666299 0.46934781250000007 0.065736139584789841 1467.5000000000002 0.51182044708538654 0.028535745563303485 10.000000000000002 42.000000000000007 0.00050515449993163001 3.5000000000000004 0.47439081887282808 8836464.5000000019 6.0000000000000009 0.55182428571428577 355.00000000000006 0.18901568465962007 14.000000000000002 1.0000000018563269 2.9342972711905341e-05 10.500000000000002
decision_type=2 2 2 2 2 2 2 2 2 2 2 2 2 2 2 2 2 2 2 2 2 2 2 2 2 2 2 2 2 2
left_child=1 17 8 4 5 6 7 14 9 13 11 16 20 23 18 26 27 -1 28 -16 -6 -22 -10 -2 29 -26 -7 -9 -4 -25
right_child=2 -3 3 -5 12 15 -8 10 22 -11 -12 -13 -14 -15 19 -17 -18 -19 -20 -21 21 -23 -24 24 25 -27 -28 -29 -30 -31
leaf_value=-0.022932725196626081 0.0062306071058344514 -0.022590972838928636 0.036136703159816722 2.5531767040831713e-05 0.075628089137751431 3.0149223171349604e-05 -0.0027867313903790604 0.010142312638350505 -0.0029631846337657922 -0.014058516834473879 -0.0003582331584706111 -0.0059041133805394002 0.014926373265477723 -0.0072684672971231384 0.023699994019917982 0.0049114453817377781 0.04420546921690658 -0.022830932662501982 0.0039596952887656304 -0.0009617709147295983 0.031681308914165388 -0.0021070369737742566 -0.030009416883945053 -0.012423141794248416 -0.00267134855261304 0.0071024805560689691 -0.0055647320090209014 0.00039016565021725573 0.0091458673435390377 -0.000944815557081391
leaf_weight=727 42 226 139 286 125 55 56 40 24 23 100 34 81 21 34 21 24 110 39 33 56 23 23 22 25 43 51 26 25 34
leaf_count=727 42 226 139 286 125 55 56 40 24 23 100 34 81 21 34 21 24 110 39 33 56 23 23 22 25 43 51 26 25 34
internal_value=0 -0.00426458 0.000809466 0.00112729 0.00145255 0.00100804 0.00135213 0.00165369 -0.000733888 -0.000265889 0.000748414 0.00156749 0.00250845 0.000170104 0.00240474 -0.000482117 0.00239439 -0.00367481 0.00286407 0.00101304 0.00301194 0.00195328 -0.00282495 0.000511903 -2.89727e-06 0.00104862 -0.000998679 0.00157044 0.00329497 -0.00127974
internal_weight=0 1063 1505 1248 962 677 550 494 257 210 224 124 285 187 270 127 90 837 203 67 204 79 47 166 124 68 106 66 164 56
internal_count=2568 1063 1505 1248 962 677 550 494 257 210 224 124 285 187 270 127 90 837 203 67 204 79 47 166 124 68 106 66 164 56
is_linear=0
shrinkage=0.1


Tree=29
num_leaves=31
num_cat=0
split_feature=1 11 1 3 42 4 4 41 6 67 46 43 70 42 42 4 5 5 5 39 3 7 40 43 1 7 40 8 44 3
split_gain=1.5229 0.140127 0.0711629 0.0396627 0.0261828 0.022137 0.0220972 0.0211177 0.0230736 0.0243883 0.0210403 0.0176912 0.0174819 0.0173787 0.0167932 0.0160859 0.0199177 0.0161399 0.0160778 0.0244367 0.0179388 0.0139877 0.013245 0.012975 0.0123397 0.0116539 0.0105245 0.010333 0.0100768 0.0248247
threshold=13.500000000000002 1.0000000180025095e-35 101000.00000000001 6.563433496262612e-05 0.98193548387096785 0.47949089129515637 0.052131723919540525 38.971679687500014 0.41418474024406232 0.20185925557079357 0.19446480330386079 1.0000000180025095e-35 30.000000000000004 0.84773500000000013 0.22728056572555097 1.0000255000000002 0.0084136452756596453 0.80238294348996086 1.0721647412552977 1.0000000180025095e-35 0.91485507246376818 0.86873617166213823 27.500000000000004 1.0000000180025095e-35 812065.00000000012 0.018835546448990388 693.50000000000011 0.0037787480016853964 677.50000000000011 0.17585339275638368
decision_type=2 2 2 2 2 2 2 2 2 2 2 2 2 2 2 2 2 2 2 2 2 2 2 2 2 2 2 2 2 2
left_child=1 12 4 6 10 7 21 8 9 11 13 -5 -1 14 15 16 25 -18 20 -20 28 -4 -16 24 -8 -2 -24 -21 29 -19
right_child=2 -3 3 5 -6 -7 23 -9 -10 -11 -12 -13 -14 -15 22 -17 17 18 19 27 -22 -23 26 -25 -26 -27 -28 -29 -30 -31
leaf_value=-0.020528605232407141 0.019789562619096302 -0.020331875555035774 0.066970903694575062 0.0025031488892572895 -0.0086024143089309391 -0.00088528159969953897 -0.010985215371043822 -0.0028590915869003198 2.7134300854214644e-05 -0.0024511301206850081 -0.0062364574490210607 0.022395178232722301 -0.020658060241060917 0.0049313575381269466 -0.0097313089788913856 -0.011520911613591167 -0.0032016142830748606 0.0010994772972885869 0.017700249789271538 -0.0060370992501049166 -0.0068990208945319161 0.018525909865422463 0.0042259064985815447 0.015583184718149568 0.016660045270684522 0.001924191071569048 -0.0020039892405893768 -0.0029764229113723676 -0.0023045149357635354 0.01529868632898186
leaf_weight=538 48 226 113 49 20 109 20 22 110 33 38 257 299 26 31 28 47 109 26 23 26 53 20 27 21 100 45 21 22 61
leaf_count=538 48 226 113 49 20 109 20 22 110 33 38 257 299 26 31 28 47 109 26 23 26 53 20 27 21 100 45 21 22 61
internal_value=0 -0.00423927 0.00070495 0.00133851 -4.13812e-05 0.00089513 0.00243747 0.00119233 0.00134055 0.0017489 6.48917e-05 0.00202744 -0.00364267 0.000202092 9.36495e-05 0.00032163 0.000456718 2.98886e-05 0.000310291 -0.00100826 0.000733677 0.00305943 -0.00111987 0.000919166 -0.000201793 0.00142285 -0.000308699 -0.00244451 0.00106749 0.00132811
internal_weight=0 1063 1505 814 691 580 234 471 449 339 671 306 837 633 607 511 483 335 288 70 218 166 96 68 41 148 65 44 192 170
internal_count=2568 1063 1505 814 691 580 234 471 449 339 671 306 837 633 607 511 483 335 288 70 218 166 96 68 41 148 65 44 192 170
is_linear=0
shrinkage=0.1


Tree=30
num_leaves=31
num_cat=0
split_feature=1 11 1 3 7 70 4 1 1 41 3 42 44 67 40 7 1 4 7 41 41 1 5 1 44 46 43 6 4 40
split_gain=1.47935 0.140127 0.0533478 0.0345353 0.0265251 0.0174819 0.0161959 0.0228772 0.0255856 0.0153694 0.0181361 0.0244285 0.0150069 0.0160926 0.014257 0.0185797 0.0138286 0.0137794 0.0122648 0.0120186 0.0154995 0.0119821 0.0116753 0.0135828 0.0123002 0.0113742 0.0106332 0.0120309 0.0107373 0.0099745
threshold=13.500000000000002 1.0000000180025095e-35 111865.00000000001 5.1863136288339211e-05 0.037292052681844143 30.000000000000004 0.11552113179623634 1059596.0000000002 392805.00000000006 14.000000000000002 0.10412254454584964 0.00012028614000432178 253.50000000000003 0.00078662284941040026 42340.500000000007 0.52911051840907442 4683900.0000000009 0.0018971633740112847 0.0099875000000000016 16.011904761904766 25.842285156250018 98990.000000000015 1.8502363148320977 13198608.500000002 936.00000000000011 0.030696369543024644 1.0000000180025095e-35 0.0099875000000000016 0.00029406960266219369 3.5000000000000004
decision_type=2 2 2 2 2 2 2 2 2 2 2 2 2 2 2 2 2 2 2 2 2 2 2 2 2 2 2 2 2 2
left_child=1 5 9 4 17 -1 7 8 14 12 11 18 13 21 15 -5 -8 -4 -11 -12 29 -2 23 24 -9 -26 28 -28 -6 -21
right_child=2 -3 3 6 26 -7 16 22 -10 10 19 -13 -14 -15 -16 -17 -18 -19 -20 20 -22 -23 -24 -25 25 -27 27 -29 -30 -31
leaf_value=-0.018475744709166443 0.0011652640962267924 -0.01829868799953225 0.063701274160110094 0.018870726677613803 0.015259214229351059 -0.018592254216954807 0.00089457223462972033 0.038764231947919475 -0.0024389030913418708 0.005890363236559182 -0.0089866123897071049 0.0084573869048032435 -0.0040657345740353181 0.0075378365701251233 -0.0016382471470798522 0.0079720952290667675 -0.0020577476617553714 0.01499404074361621 -0.00278508410062166 0.0077945281054848442 -0.0054333893250944959 -0.0077216833338663807 -0.0010564052829906245 0.0043438412223395064 -0.0082639124747636572 0.015716781207299493 0.035656474929482589 0.00013457669609096001 -0.013556085847806543 -0.003697672503167482
leaf_weight=538 402 226 97 45 21 299 98 104 118 20 33 22 61 26 31 61 28 43 20 20 33 25 21 27 20 26 22 22 24 35
leaf_count=538 402 226 97 45 21 299 98 104 118 20 33 22 61 26 31 61 28 43 20 20 33 25 21 27 20 26 22 22 24 35
internal_value=0 -0.00423927 0.000633749 0.00118672 0.00222627 -0.00364267 0.000775564 0.0010545 0.000428294 -7.28286e-06 -0.000794272 0.000596459 0.00027291 0.00047119 0.00135792 0.00190959 -0.000227265 0.00308438 -0.000875629 -0.00150688 -0.000896569 0.000324116 0.00186097 0.00212547 0.00249713 0.00113553 0.000876439 0.00198183 -0.000204391 0.00013143
internal_weight=0 1063 1505 808 229 837 579 453 255 697 183 62 514 453 137 106 126 140 40 121 88 427 198 177 150 46 89 44 45 55
internal_count=2568 1063 1505 808 229 837 579 453 255 697 183 62 514 453 137 106 126 140 40 121 88 427 198 177 150 46 89 44 45 55
is_linear=0
shrinkage=0.1


Tree=31
num_leaves=31
num_cat=0
split_feature=1 11 1 4 46 41 44 70 7 3 5 1 5 1 1 1 1 1 6 1 7 41 7 3 3 46 40 40 44 3
split_gain=1.44707 0.1418 0.0462829 0.0363449 0.0350972 0.0257492 0.0282773 0.018447 0.0174121 0.0204907 0.0169253 0.0164422 0.015944 0.0146389 0.0130238 0.0125951 0.0189436 0.0115105 0.0179108 0.0235689 0.0230781 0.0137957 0.0111453 0.0108237 0.0103995 0.0099291 0.0121333 0.014106 0.01093 0.0149064
threshold=13.500000000000002 1.0000000180025095e-35 1059596.0000000002 0.99679656862745114 0.21034114320790573 1.0000000180025095e-35 2.5000000000000004 30.000000000000004 0.26589264237951221 0.00016181775243936776 1.8502363148320977 132168.50000000003 0.0021042768494635724 322490.00000000006 9044.0000000000018 65.500000000000014 1555.0000000000002 13198608.500000002 0.0052657850860077906 1612100.0000000002 1.1818038798135914e-05 6.0000000000000009 0.75375000000000003 0.18901568465962007 0.73455131350034808 0.026880075525617476 39473.500000000007 8648.0000000000018 3.5000000000000004 0.91485507246376818
decision_type=2 2 2 2 2 2 2 2 2 2 2 2 2 2 2 2 2 2 2 2 2 2 2 2 2 2 2 2 2 2
left_child=1 7 4 10 5 6 11 -1 9 12 17 -2 -7 -14 -6 -10 -17 18 19 20 -4 -20 -18 -8 -25 26 27 28 29 -11
right_child=2 -3 3 -5 14 8 23 -9 15 25 -12 -13 13 -15 -16 16 22 -19 21 -21 -22 -23 -24 24 -26 -27 -28 -29 -30 -31
leaf_value=-0.016628170238249852 0.0092452765317915468 -0.016468819199578988 -0.010147035196320077 -0.0010043181286562232 -0.01599258895791458 0.037053306199346991 0.01115082956604212 -0.01673302879525931 0.00040187898756478547 -2.5597814552469345e-05 -0.00095076475469149104 0.025446190384235835 -0.0039877963517096051 0.013698545634979454 -0.0020840886322741172 -0.01828152483209209 -0.0065567304475425917 0.0096350713920923432 0.027874490255855023 0.075109223745559117 0.039686586230009979 -0.0063429238668998526 -0.0011916075029823503 -0.0056712207585693621 0.0043160278921952509 0.00085269886479224513 -0.0022675044424612877 0.0040190969592345032 -0.0021950127822076837 0.0061213170092592863
leaf_weight=538 105 226 24 54 23 54 35 299 36 173 29 78 46 32 39 22 26 35 51 109 33 27 240 44 32 24 34 21 53 26
leaf_count=538 105 226 24 54 23 54 35 299 36 173 29 78 46 32 39 22 26 35 51 109 33 27 240 44 32 24 34 21 53 26
internal_value=0 -0.00422613 0.000593434 0.00157883 0.000281349 0.000414057 0.00121257 -0.00362597 0.000115755 0.000509233 0.00199839 0.00197637 0.00156269 0.000648235 -0.00203248 -0.00044653 -0.000666966 0.00223738 0.00248065 0.00306794 0.00142019 0.00123077 -0.000433725 -4.66717e-05 -0.000716793 8.91245e-05 -6.40116e-05 0.000157848 -4.96577e-05 0.000290219
internal_weight=0 1063 1505 362 1143 1081 294 837 787 463 308 183 132 78 62 324 288 279 244 166 57 78 266 111 76 331 307 273 252 199
internal_count=2568 1063 1505 362 1143 1081 294 837 787 463 308 183 132 78 62 324 288 279 244 166 57 78 266 111 76 331 307 273 252 199
is_linear=0
shrinkage=0.1


Tree=32
num_leaves=31
num_cat=0
split_feature=1 11 4 1 44 42 41 8 1 6 45 70 1 4 44 1 45 46 7 5 41 6 1 45 5 6 46 44 40 44
split_gain=1.386 0.145185 0.0415588 0.0386914 0.0239909 0.0400601 0.0283387 0.0269857 0.0234697 0.0211648 0.0188145 0.0176174 0.0163177 0.0158544 0.0145715 0.0114258 0.0108472 0.0183248 0.0180333 0.0101225 0.00931703 0.0151422 0.0145816 0.0130938 0.00912203 0.00885887 0.0132438 0.00869849 0.0164768 0.00842029
threshold=13.500000000000002 1.0000000180025095e-35 0.010212705002783573 1059596.0000000002 3.5000000000000004 7.0756541515371699e-05 25.609375000000021 0.00064276243333113005 1920.0000000000002 0.065736139584789841 0.35038939245253842 30.000000000000004 8836464.5000000019 0.99875000000000014 8944.5000000000018 1440648.5000000002 0.4881943136252776 0.00060139633475800997 0.96430517416167538 1.0009765523586391 1.0000000180025095e-35 0.51980185759420072 58975.000000000007 0.50017250000000013 0.040484747024851254 0.00209457 0.016847971886552304 22553.500000000004 19.500000000000004 1246.5000000000002
decision_type=2 2 2 2 2 2 2 2 2 2 2 2 2 2 2 2 2 2 2 2 2 2 2 2 2 2 2 2 2 2
left_child=1 11 3 4 5 7 -7 20 13 10 19 -1 14 -4 -12 -11 25 -18 27 -5 23 22 -22 -2 -9 26 29 28 -19 -6
right_child=2 -3 8 9 16 6 -8 24 -10 15 12 -13 -14 -15 -16 -17 17 18 -20 -21 21 -23 -24 -25 -26 -27 -28 -29 -30 -31
leaf_value=-0.014965353214424937 0.026171529841905895 -0.01482193727962109 -0.019269313636320364 0.072707191558005854 0.021660754981348521 0.0002464813744786909 -0.011547977405673393 0.024152602227761125 -0.00035806791113444095 0.03343902993593844 0.025544185395354191 -0.015059725915733325 -0.0055337423611121041 -0.019023227404263567 -0.0031128207963725175 -0.0013296974993160405 -0.013607016792131077 0.014647830258341444 -0.005531150481458625 0.033736745516933911 0.0028495805008041941 -0.0037642118953410634 0.015234694507540071 0.015498354287337791 -0.0021050367078757405 -0.0017587575052964155 -0.0062590725346183262 -0.0037614619327481337 -2.0385680485190961e-05 0.010792796557662144
leaf_weight=538 56 226 22 88 28 215 26 23 345 22 46 299 24 22 20 58 36 23 33 20 36 29 101 48 69 24 30 20 21 20
leaf_count=538 56 226 22 88 28 215 26 23 345 22 46 299 24 22 20 58 36 23 33 20 36 29 101 48 69 24 30 20 21 20
internal_value=0 -0.00419975 0.000517015 0.000827261 0.000488124 0.000822147 -0.000176801 0.00148719 -0.000373047 0.00184955 0.00240417 -0.00359247 0.00133634 -0.00254806 0.00214831 0.000476862 -0.000368966 -0.00096394 -0.000248852 0.00329404 0.00199119 0.00152622 0.00196564 0.00273334 8.08196e-06 0.000406834 0.000923782 0.00073023 0.00151623 0.00195393
internal_weight=0 1063 1505 1116 838 603 241 362 389 278 198 837 90 44 66 80 235 133 97 108 270 166 137 104 92 102 78 64 44 48
internal_count=2568 1063 1505 1116 838 603 241 362 389 278 198 837 90 44 66 80 235 133 97 108 270 166 137 104 92 102 78 64 44 48
is_linear=0
shrinkage=0.1


Tree=33
num_leaves=31
num_cat=0
split_feature=1 11 1 4 5 3 44 41 1 6 7 45 3 70 40 3 5 5 45 1 5 3 1 3 67 5 6 8 42 44
split_gain=1.36282 0.146929 0.0411147 0.0324005 0.030133 0.0281395 0.022199 0.0286675 0.0221534 0.0202286 0.0186587 0.0178151 0.0174834 0.0160873 0.0131693 0.0131446 0.0127632 0.0235554 0.0117419 0.0115871 0.0229213 0.0114193 0.0112286 0.00980932 0.00966585 0.0135626 0.00794103 0.00748392 0.0123695 0.00727904
